tree
version=v4
num_class=1
num_tree_per_iteration=1
label_index=0
max_feature_idx=10
objective=binary sigmoid:1
feature_names=Column_0 Column_1 Column_2 Column_3 Column_4 Column_5 Column_6 Column_7 Column_8 Column_9 Column_10
feature_infos=[-2.8629563751966471:3.8167906005903935] none [-0.58838032449260103:1.6995809655301084] [-0.40287750828001767:2.4821440250394851] [-0.32336868693846438:3.0924453739402566] [-0.25954485311437803:3.8528985953703359] [-0.37380096305851085:2.6752205018891653] [-0.34811991408588649:2.8725733850241433] [-0.49863945326038828:2.0054570360636381] [-2.1916846765576357:3.5614987684782822] none
tree_sizes=2651 2795 2790 2785 2789 2779 2823 2798 2786 2798 2802 2804 2794 2788 2793 2832 2798 2828 2796 2786 2814 2830 2790 2795 2794 2818 2789 2795 2778 2782 2799 2790 2793 2808 2796 2788 2783 2788 2808 2777 2782 2802 2805 2810 2800 2797 2772 2795 2788 2798 2787 2795 2804 2828 2792 2779 2779 2797 2783 2792 2785 2769 2800 2792 2813 2791 2804 2786 2812 2796 2781 2768 2787 2790 2783 2822 2774 2778 2799 2800 2817 2810 2774 2805 2793 2793 2790 2787 2787 2781 2797 2789 2796 2793 2793 2796 2788 2780 2801 2795 2794 2828 2803 2790 2786 2798 2795 2787 2784 2786 2784 2772 2794 2792 2782 2784 2790 2788 2799 2797 2816 2830 2783 2793 2809 2795 2779 2777 2795 2803 2811 2813 2793 2799 2805 2804 2808 2807 2836 2833 2814 2807 2824 2811 2795 2799 2787 2778 2816 2801 2806 2820 2784 2800 2804 2824 2830 2806 2803 2801 2812 2803 2821 2831 2793 2811 2777 2780 2803 2790 2797 2800 2797 2794 2818 2797 2791 2788 2822 2818 2814 2800 2811 2805 2835 2791 2816 2809 2789 2808 2789 2805 2805 2801 2852 2849 2798 2789 2792 2780 2788 2799 2806 2824 2785 2807 2802 2830 2796 2794 2800 2802 2792 2786 2796 2802 2818 2811 2817 2811 2789 2790 2804 2807 2797 2787 2805 2803 2790 2788 2792 2804 2833 2801 2792 2786 2843 2813 2797 2801 2847 2807 2850 2803 2815 2823 2809 2810 2809 2851 2800 2814 2798 2799 2810 2793 2801 2802 2809 2804 2788 2790 2790 2833 2802 2796 2843 2791 2810 2823 2816 2819 2804 2818 2780 2793 2793 2792 2807 2819 2810 2807 2818 2811 2799 2786 2806 2801 2796 2807 2799 2790 2799 2793 2797 2795 2848 2804 2790 2800 2817 2800 2816 2786 2822 2820 2795 2802 2806 2788 2815 2837 2804 2809 2790 2781 2837 2830 2782 2817 2795 2794 2817 2814 2796 2810 2794 2841 2809 2822 2814 2824 2806 2813 2782 2823 2814 2811 2807 2797 2841 2821 2808 2796 2801 2809 2815 2817 2811 2813 2816 2829 2814 2802 2832 2850 2804 2791 2811 2810 2805 2854 2798 2801 2808 2820 2822 2802 2815 2825 2802 2816 2806 2810 2815 2793 2813 2825 2784 2806 2791 2804 2808 2805 2794 2841 2801 2827 2829 2823 2803 2831 2798 2799 2797 2795 2802 2801 2856 2813

Tree=0
num_leaves=25
num_cat=0
split_feature=0 0 0 9 9 2 9 0 2 6 9 9 9 9 9 0 5 9 0 7 9 9 9 0
split_gain=111.121 64.6572 17.2167 14.153 13.3766 13.1825 9.35635 8.57155 10.8365 12.3203 9.41317 15.5807 9.06485 8.99702 24.9429 8.81786 7.61516 7.51197 6.82955 6.81405 7.79802 24.0769 9.09595 6.00929
threshold=1.0000000180025095e-35 -1.9564192856255487 0.52462959109535223 -1.4757443638167695 -2.0159072162610427 1.0000000180025095e-35 -1.456498656485026 -0.62046989046814038 1.0000000180025095e-35 1.0000000180025095e-35 -0.67640598597168167 -0.98946949190137889 -0.15805493517005098 0.16783904231414226 0.40905190753866322 -0.90674476085901368 1.0000000180025095e-35 0.80936262003893245 -0.52504493367118277 1.0000000180025095e-35 -0.75852100392045485 -0.92275103981800077 -1.1703791408197699 0.42920463429839445
decision_type=2 2 2 2 2 2 2 2 2 2 2 2 2 2 2 2 2 2 2 2 2 2 2 2
left_child=1 -1 23 4 -3 -6 -4 8 9 10 11 -5 -10 18 -15 -11 -8 -18 -9 20 21 22 -20 -2
right_child=2 3 6 7 5 -7 16 13 12 15 -12 -13 -14 14 -16 -17 17 -19 19 -21 -22 -23 -24 -25
leaf_value=0.94291412154710397 1.0542947011619994 1.0483794821939443 1.0284327109981604 1.0586616413397585 1.0134201410981756 0.95153265888809879 1.0718107396036438 1.0131990066806635 1.0743328760282986 0.98529704635340787 1.0482357792195498 0.9995623842674205 1.0421546074678296 0.97378051109392261 1.0309744048347422 1.0382042061993337 1.067276423326792 1.0175774681474021 1.0145437430033719 1.0671611980759821 1.044992294632396 0.95861901181291675 1.060794333054478 1.0335571939928667
leaf_weight=7.1199592351913443 68.697985053062439 6.3502339124679592 5.1956459283828726 6.5426652431488064 11.545879840850828 4.2334892749786368 114.88150441646576 9.0442725419998151 15.202075123786928 6.5426652431488037 50.609439969062805 10.391291856765745 16.356663107872009 8.2745472192764264 40.218148112297058 5.0032145977020246 6.3502339124679548 4.8107832670211792 7.1199592351913461 7.889684557914733 40.7954421043396 4.2334892749786368 8.2745472192764282 15.394506454467772
leaf_count=37 357 33 27 34 60 22 597 47 79 34 263 54 85 43 209 26 33 25 37 41 212 22 43 80
internal_value=1.04508 1.0321 1.0611 1.03455 1.01161 0.996816 1.06789 1.0367 1.04279 1.03686 1.04176 1.0224 1.05766 1.03135 1.02122 1.00822 1.06951 1.04585 1.0377 1.04094 1.03752 1.02198 1.0394 1.0505
internal_weight=481.078 265.748 215.331 258.628 22.1296 15.7794 131.238 236.498 110.648 79.0893 67.5434 16.934 31.5587 125.85 48.4927 11.5459 126.043 11.161 77.3574 68.3131 60.4234 19.628 15.3945 84.0925
internal_count=2500 1381 1119 1344 115 82 682 1229 575 411 351 88 164 654 252 60 655 58 402 355 314 102 80 437
is_linear=0
shrinkage=1


Tree=1
num_leaves=25
num_cat=0
split_feature=0 0 0 9 9 9 0 9 9 9 0 9 6 5 9 9 9 9 0 9 0 9 9 9
split_gain=104.601 57.2745 16.545 12.9699 12.1107 8.92968 8.00746 10.2918 10.5889 9.81572 16.2225 9.64687 8.37629 7.34198 7.12742 7.04782 5.96767 14.574 5.69416 7.54471 5.65803 8.6488 6.06176 11.1878
threshold=1.0000000180025095e-35 -1.9564192856255487 0.52462959109535223 -1.4757443638167695 -2.0159072162610427 -1.456498656485026 -0.71589484726509822 -0.24530214174062284 -0.47625062972154691 -0.947128935771543 -0.14334510648335191 -0.67640598597168167 1.0000000180025095e-35 1.0000000180025095e-35 -0.17601759534634517 0.80936262003893245 0.37569268149697438 0.27818109768280613 -0.90674476085901368 -0.24530214174062284 0.42920463429839445 1.0685381454397478 -0.26968003769416454 -0.55579955335942099
decision_type=2 2 2 2 2 2 2 2 2 2 2 2 2 2 2 2 2 2 2 2 2 2 2 2
left_child=1 -1 20 4 -3 -4 12 8 9 -8 11 -11 -5 16 -9 -15 17 -7 19 -14 22 -22 23 -2
right_child=2 3 5 6 -6 13 7 14 -10 10 -12 -13 18 15 -16 -17 -18 -19 -20 -21 21 -23 -24 -25
leaf_value=-0.094966140485435446 0.0076277961053881861 0.002671309576221941 -0.016542392432739611 0.0018258631034753588 -0.046255263113650337 0.024731132866942548 0.0030789361792607451 -0.058183305954943601 0.016010541298389171 -0.0330502702886303 -0.077553024345125302 0.0087137124953137746 -0.0080961056498034655 0.021222340195218646 -0.018238298140175448 -0.02684490929037342 0.032480937374798992 -0.020455874216820366 0.0016323933974699174 -0.062524319826919528 0.0026011173681483417 -0.046938557634200635 0.016308359799554334 -0.037822680660882617
leaf_weight=7.4642773270606986 23.762126266956333 6.3418497741222408 5.2383992671966544 81.366778090596199 16.144746661186218 48.260979682207108 21.592324212193489 4.2502465397119513 17.121971592307091 10.547395139932636 4.3039693832397452 9.4261802583932877 4.2893669605255118 6.2840454429388029 74.283228352665901 4.8752386122941971 57.761172533035278 7.4101504236459723 5.3934992998838416 4.9226385354995719 11.032001227140425 4.4515092670917502 38.51764015853405 6.1321616172790518
leaf_count=37 124 33 27 423 82 254 112 22 89 54 22 49 22 33 383 25 304 39 28 25 57 23 201 32
internal_value=-0.000528699 -0.0130326 0.0151183 -0.0106803 -0.0324566 0.0218281 -0.00861847 -0.0131547 -0.00412164 -0.0116364 -0.0247242 -0.0133405 -0.00192913 0.0234413 -0.0204001 0.000222847 0.0257255 0.0187165 -0.0228481 -0.037181 0.00473477 -0.0116415 0.00844118 -0.00169538
internal_weight=481.174 267.448 213.725 259.984 22.4866 129.83 237.498 141.525 62.9918 45.8699 24.2775 19.9736 95.9723 124.592 78.5335 11.1593 113.432 55.6711 14.6055 9.21201 83.8954 15.4835 68.4119 29.8943
internal_count=2500 1381 1119 1344 115 682 1229 731 326 237 125 103 498 655 405 58 597 293 75 47 437 80 357 156
is_linear=0
shrinkage=0.03


Tree=2
num_leaves=25
num_cat=0
split_feature=0 0 9 9 0 9 0 9 9 9 9 9 9 9 9 9 7 8 9 9 9 0 0 9
split_gain=98.3343 51.5271 17.5082 21.6386 14.5946 11.4138 7.35348 11.1722 6.38417 20.0552 13.7827 23.8696 8.81219 19.6408 7.26976 13.1273 6.16443 7.76839 7.59144 11.0596 20.3929 6.02832 6.00435 10.5787
threshold=1.0000000180025095e-35 -1.9564192856255487 -1.5437458630555974 -1.6669183899787574 0.52462959109535223 -1.456498656485026 0.42920463429839445 1.0685381454397478 0.18195256102408755 0.2987098521699994 -0.67640598597168167 -0.947128935771543 -0.88554267230996297 -0.79444632427304274 -1.1447181977107781 -1.3038160449865261 1.0000000180025095e-35 1.0000000180025095e-35 -0.0066553708270005877 -0.24530214174062284 -0.15805493517005098 -0.62046989046814038 -0.71589484726509822 0.40905190753866322
decision_type=2 2 2 2 2 2 2 2 2 2 2 2 2 2 2 2 2 2 2 2 2 2 2 2
left_child=1 -1 3 -3 6 -6 -2 -8 10 -10 11 14 -13 -14 15 -4 17 18 19 -12 -21 -15 -11 -24
right_child=4 2 8 -5 5 -7 7 -9 9 22 16 12 13 21 -16 -17 -18 -19 -20 20 -22 -23 23 -25
leaf_value=-0.08845949389642728 0.009287419457061654 -0.019084035849510118 0.0068031412098695605 -0.094675553659429965 -0.021602506259946863 0.023460025992427171 0.002637387142865748 -0.057387151970517129 -0.058185367473669362 -0.00029728409820128948 0.015326189565755093 -0.073425382658968016 0.022325921700736912 -0.033271556469465842 0.015304640780734426 -0.039676846838759758 -0.020308305849213337 -0.012867916916558477 0.032843362430778615 -0.064000029994177324 0.0076198679260883473 -0.075936258194974932 -0.060953022675516617 -0.01214680077317052
leaf_weight=7.7679790854454032 66.603001609444618 12.969958394765856 14.066037178039549 4.6230357885360709 5.2792869955301276 121.07754676043987 9.4719231277704221 3.956490457057952 8.4614338725805265 35.239937365055084 35.822882547974579 5.2175242751836803 4.8654964417219206 8.4716107398271578 15.511982470750807 8.9473471045494097 8.8644054979085904 15.68236121535301 11.436165332794188 5.1349433660507229 11.801783069968229 4.5984747260808883 4.3949636816978446 44.132038071751595
leaf_count=37 349 66 72 23 27 644 49 20 43 183 187 26 25 43 81 46 46 81 59 26 61 23 22 226
internal_value=-0.000336235 -0.0123221 -0.0100495 -0.0389478 0.0152283 0.0215773 0.0052042 -0.015048 -0.00795422 -0.0141687 -0.0041439 -0.0150365 -0.0391104 -0.029128 -0.00056856 -0.0112678 0.00342678 0.00606076 0.0106848 0.00588177 -0.0140941 -0.0482824 -0.00972252 -0.0165671
internal_weight=474.399 268.01 260.242 17.593 206.388 126.357 80.0314 13.4284 242.649 92.2284 150.421 61.6785 23.1531 17.9356 38.5254 23.0134 88.7425 79.8781 64.1958 52.7596 16.9367 13.0701 83.7669 48.527
internal_count=2465 1376 1339 89 1089 671 418 69 1250 474 776 316 117 91 199 118 460 414 333 274 87 66 431 248
is_linear=0
shrinkage=0.03


Tree=3
num_leaves=25
num_cat=0
split_feature=0 0 9 9 0 9 0 9 9 9 9 9 9 9 9 9 0 0 7 8 9 9 9 0
split_gain=92.657 46.4268 16.0534 19.0583 14.0291 10.868 6.91541 10.1817 5.93625 18.3724 12.872 21.9105 7.79547 18.029 6.85103 12.0958 6.23179 12.9446 5.77143 7.3264 7.31497 10.4391 18.58 5.3801
threshold=1.0000000180025095e-35 -1.9564192856255487 -1.5437458630555974 -1.6669183899787574 0.52462959109535223 -1.456498656485026 0.42920463429839445 1.0685381454397478 0.18195256102408755 0.40905190753866322 -0.67640598597168167 -0.947128935771543 -0.88554267230996297 -0.79444632427304274 -1.1447181977107781 -1.3038160449865261 -0.62046989046814038 -0.81131980406205584 1.0000000180025095e-35 1.0000000180025095e-35 -0.0066553708270005877 -0.24530214174062284 -0.15805493517005098 -0.33419502007726731
decision_type=2 2 2 2 2 2 2 2 2 2 2 2 2 2 2 2 2 2 2 2 2 2 2 2
left_child=1 -1 3 -3 6 -6 -2 -8 10 16 11 14 -13 -14 15 -4 17 -10 19 20 21 -12 -23 -17
right_child=4 2 8 -5 5 -7 7 -9 9 -11 18 12 13 -15 -16 23 -18 -19 -20 -21 -22 22 -24 -25
leaf_value=-0.082913914648002421 0.0090503652061829365 -0.018347943099236382 0.0066204016002913016 -0.088172615236806404 -0.020742869596941375 0.023030065831069889 0.0025615360052877391 -0.054238964938075805 -0.050578408453986159 -0.0068384096149063664 0.014979332688932831 -0.068981724792023302 0.021890238770222538 -0.045827466108973154 0.014958147499658911 -0.059873387205268393 -0.06184551925369023 0.013903913542619398 -0.019507474232478981 -0.012405128057922673 0.032372221328102899 -0.060309668920305329 0.0074185970813129493 -0.013731501664262296
leaf_weight=8.0345903486013395 66.301728874444962 13.083806544542314 14.021354705095289 4.8120058774948111 5.3323021978139868 119.65951344370842 9.4600208401679975 4.0589198470115653 7.5160592943429956 73.637551203370094 35.55689296126365 5.3843369483947781 4.8142475932836577 13.351887777447697 15.396930649876593 4.7487108260393143 7.2050746232271186 4.4672022014856347 8.9501228183507902 15.77790120244026 11.257245466113096 5.2833041101694134 11.758971139788626 4.3645641803741473
leaf_count=37 349 66 72 23 27 644 49 20 38 378 187 26 25 66 81 24 35 23 46 81 59 26 61 22
internal_value=-0.000320838 -0.0118826 -0.00969924 -0.0371231 0.0148882 0.0211627 0.00506304 -0.0144922 -0.00768369 -0.0136514 -0.00400697 -0.0144814 -0.0372782 -0.0278814 -0.000548041 -0.010868 -0.0397971 -0.0265402 0.00333377 0.0059009 0.010424 0.00572669 -0.013578 -0.0377749
internal_weight=474.235 269.423 261.388 17.8958 204.812 124.992 79.8207 13.5189 243.492 92.8259 150.666 62.082 23.5505 18.1661 38.5316 23.1346 19.1883 11.9833 88.5844 79.6343 63.8564 52.5992 17.0423 9.11328
internal_count=2465 1376 1339 89 1089 671 418 69 1250 474 776 316 117 91 199 118 96 61 460 414 333 274 87 46
is_linear=0
shrinkage=0.03


Tree=4
num_leaves=25
num_cat=0
split_feature=0 0 0 9 9 9 9 9 9 9 3 9 9 0 9 9 0 9 9 0 0 0 9 9
split_gain=94.5874 44.4129 15.3365 15.1405 17.2964 12.6393 6.5095 18.3786 7.8559 15.9552 8.00705 6.93704 12.8855 6.75174 7.16081 20.4619 6.64474 6.17758 18.2267 5.25862 8.35619 5.25853 4.77204 15.0515
threshold=1.0000000180025095e-35 -1.9564192856255487 0.52462959109535223 -1.5091035898584588 -2.0159072162610427 -1.456498656485026 0.16783904231414226 0.36542830425337752 -0.67640598597168167 -0.947128935771543 1.0000000180025095e-35 -0.88554267230996297 -0.79444632427304274 -0.14334510648335191 -1.1998892253951101 -1.328193940940068 -0.81131980406205584 0.74392721511100357 0.63358515974233975 -0.42961997687422504 -0.81131980406205584 0.42920463429839445 -0.24530214174062284 -0.17601759534634517
decision_type=2 2 2 2 2 2 2 2 2 2 2 2 2 2 2 2 2 2 2 2 2 2 2 2
left_child=1 -1 21 4 -3 -4 8 19 9 13 11 -11 -13 14 15 -5 17 18 -9 20 -8 -2 -10 -24
right_child=2 3 5 6 -6 -7 7 16 22 10 -12 12 -14 -15 -16 -17 -18 -19 -20 -21 -22 -23 23 -25
leaf_value=-0.07868580027171003 0.0082605264223107027 0.0072972191298580373 -0.01975483328861137 0.0034175980761009393 -0.052378758836136394 0.023580901657489051 -0.053314521595832436 0.017997927555699827 0.0079669858228993348 -0.05813968013304327 -0.064092695818850742 0.024003694902108592 -0.03228423077141139 0.030595447644626947 0.010250436156463682 -0.076964541190055594 -0.013796058209359672 0.016993084373595299 -0.062791230224354455 -0.068456962931116319 -0.0034128700812810484 -0.011563662571902755 -0.052699789820547752 0.0014859499857734302
leaf_weight=8.7141428142786008 64.861064121127129 6.2518825531005886 6.3795852661132804 9.6625561565160734 14.530796244740484 119.87513707578182 6.9251337945461282 6.5973114222288149 50.062047943472862 3.8402624130249086 5.0442201048135749 5.5163745433092179 10.87838707864284 5.8439114391803733 13.930269569158554 4.0426097512245187 53.007275283336639 15.244454994797705 4.0599977821111679 4.8461651504039756 5.3558019697666177 14.788123294711111 5.36470142006874 32.958726689219475
leaf_count=39 343 32 32 50 70 653 34 34 263 18 24 29 53 30 73 20 269 79 21 23 27 75 26 171
internal_value=-0.000459914 -0.0120495 0.0148881 -0.00984966 -0.0344269 0.0213912 -0.00774924 -0.0138248 -0.00378393 -0.0122856 -0.0302761 -0.0218462 -0.0133449 0.00129852 -0.00489674 -0.0202927 -0.00771059 0.00474315 -0.0127794 -0.0419944 -0.0315521 0.00457985 0.00186795 -0.00609924
internal_weight=478.581 272.677 205.904 263.963 20.7827 126.255 243.18 96.0361 147.144 58.7586 25.2792 20.235 16.3948 33.4793 27.6354 13.7052 78.909 25.9018 10.6573 17.1271 12.2809 79.6492 88.3855 38.3234
internal_count=2488 1385 1103 1346 102 685 1244 487 757 297 124 100 82 173 143 70 403 134 55 84 61 418 460 197
is_linear=0
shrinkage=0.03


Tree=5
num_leaves=25
num_cat=0
split_feature=0 0 0 9 9 9 9 9 9 9 3 0 9 9 9 9 0 9 9 5 9 9 9 0
split_gain=89.1637 40.4898 14.7483 13.9458 15.754 12.0507 6.05369 16.8451 7.34662 14.7714 7.19601 6.43536 6.6916 18.4867 6.30137 12.0196 6.20757 5.83403 16.6887 5.09008 6.56906 5.14441 8.51177 4.95154
threshold=1.0000000180025095e-35 -1.9564192856255487 0.52462959109535223 -1.5091035898584588 -2.0159072162610427 -1.456498656485026 0.16783904231414226 0.36542830425337752 -0.67640598597168167 -0.947128935771543 1.0000000180025095e-35 -0.14334510648335191 -1.1998892253951101 -1.328193940940068 -0.88554267230996297 -0.79444632427304274 -0.81131980406205584 0.74392721511100357 0.63358515974233975 1.0000000180025095e-35 0.80936262003893245 0.37569268149697438 0.27818109768280613 0.42920463429839445
decision_type=2 2 2 2 2 2 2 2 2 2 2 2 2 2 2 2 2 2 2 2 2 2 2 2
left_child=1 -1 23 4 -3 -4 8 -8 9 11 14 12 13 -5 -11 -16 17 18 -9 21 -21 22 -7 -2
right_child=2 3 5 6 -6 19 7 16 -10 10 -12 -13 -14 -15 15 -17 -18 -19 -20 20 -22 -23 -24 -25
leaf_value=-0.074467703731431023 0.00804605362652633 0.0071029364325885542 -0.01899145367914545 0.0033205508014249306 -0.049741337838786905 0.023099899787793317 -0.040035164977633368 0.017610669539582124 0.0018153284438035865 -0.055177509790907464 -0.060636222246696563 0.030118385385999945 0.0099934922556271285 -0.072238508314518585 0.023564971455586534 -0.030891374274887723 -0.01329673742301634 0.016620614850474585 -0.059132964738080808 0.021582447559791107 -0.026920131147953108 0.031584202257959555 -0.012717855299760675 -0.011156932078648216
leaf_weight=8.9280658811330778 64.596363261342049 6.2305283546447781 6.4360556602478018 9.6468472033739072 14.837350398302076 46.174590289592743 17.419847771525383 6.5409775525331515 88.283167868852615 3.9237025678157869 5.1697988808155051 5.759663611650466 13.860845327377319 4.175732597708703 5.45149394869805 11.025501132011408 53.342653036117554 15.120404168963431 4.1799171417951584 6.7281181365251523 4.0115620046854019 54.642882138490677 6.8581485152244559 14.866196423768995
leaf_count=39 343 32 32 50 70 255 84 34 460 18 24 30 73 20 29 53 269 79 21 37 21 303 37 75
internal_value=-0.000441905 -0.0116301 0.0145567 -0.00951284 -0.0329304 0.0209869 -0.00749005 -0.0133262 -0.00366246 -0.0118571 -0.029022 0.00126705 -0.0047356 -0.0195055 -0.0210105 -0.0128742 -0.00745041 0.00461782 -0.0123105 0.0231598 0.00346542 0.0251242 0.018468 0.00445348
internal_weight=478.21 273.896 204.314 264.968 21.0679 124.851 243.901 96.6038 147.297 59.0136 25.5705 33.4431 27.6834 13.8226 20.4007 16.477 79.184 25.8413 10.7209 118.415 10.7397 107.676 53.0327 79.4626
internal_count=2488 1385 1103 1346 102 685 1244 487 757 297 124 173 143 70 100 82 403 134 55 653 58 595 292 418
is_linear=0
shrinkage=0.03


Tree=6
num_leaves=25
num_cat=0
split_feature=0 0 0 5 0 0 0 0 5 6 0 0 8 7 3 0 2 0 6 6 7 0 0 2
split_gain=84.643 40.8657 12.6446 5.01152 5.00349 4.75083 13.5462 10.4296 3.94544 3.35105 6.50318 25.7534 3.29242 6.58642 3.60938 4.77487 3.51815 7.11737 4.38819 3.10677 2.90741 2.83182 2.53763 2.12989
threshold=1.0000000180025095e-35 -1.9564192856255487 0.52462959109535223 1.0000000180025095e-35 0.42920463429839445 -1.2884445880468445 -1.6701444152346754 -1.8609943288285906 1.0000000180025095e-35 1.0000000180025095e-35 1.2880292454710141 1.0971793318770986 1.0000000180025095e-35 1.0000000180025095e-35 1.0000000180025095e-35 -0.42961997687422504 1.0000000180025095e-35 -0.33419502007726731 1.0000000180025095e-35 1.0000000180025095e-35 1.0000000180025095e-35 -0.23877006328030961 -0.71589484726509822 1.0000000180025095e-35
decision_type=2 2 2 2 2 2 2 2 2 2 2 2 2 2 2 2 2 2 2 2 2 2 2 2
left_child=1 -1 4 5 23 6 7 -3 9 -4 11 -11 14 19 16 22 20 18 -18 21 -7 -14 -16 -2
right_child=2 3 8 -5 -6 12 -8 -9 -10 10 -12 -13 13 -15 15 -17 17 -19 -20 -21 -22 -23 -24 -25
leaf_value=-0.076964944628466286 0.0053221355981307675 -0.0012996150465036274 0.024261640424363011 -0.025058355873522314 -0.010179201807186575 -0.0047148565288938687 0.012600064599796837 -0.060205220270846224 0.0031117504281140056 0.033631814839377702 0.033954101751295832 -0.069987130996751384 -0.019048081551633324 0.018913755112455573 -0.016879134413652228 -0.003742365897808251 -0.0096109609881903924 -0.030250154520805768 0.025325890355996132 0.0038612218641450868 0.013492815639416502 -0.039107548280960122 -0.042625832590313252 0.016899289880286338
leaf_weight=8.1770312786102277 45.81106036901474 6.3199162185192108 98.102593779563904 16.186718910932541 15.121407017111776 100.60605205595493 28.583608016371727 4.7296754717826825 10.600362241268156 5.5234675109386426 5.7339512109756461 3.5437173247337341 24.809324368834492 4.0932388156652442 6.699992761015892 11.187183946371077 17.049381315708164 14.584126874804495 3.9935420453548423 3.9842864423990241 8.5649261921644193 8.505299776792528 7.0923667848110217 20.793710932135582
leaf_count=35 244 32 546 81 76 512 147 24 57 31 32 19 125 21 34 56 86 73 21 20 43 42 35 111
internal_value=-2.75961e-05 -0.0109029 0.0145536 -0.00887958 0.00539959 -0.00783541 0.00169531 -0.0265136 0.0206111 0.0222541 0.00894802 -0.00686546 -0.00962418 -0.0172107 -0.00777456 -0.018306 -0.00595775 -0.0141436 -0.00298062 -0.0211751 -0.00328639 -0.0241693 -0.0301187 0.00893647
internal_weight=480.397 275.167 205.23 266.99 81.7262 250.803 39.6332 11.0496 123.504 112.904 14.8011 9.06718 211.17 41.3921 169.778 24.9795 144.798 35.6271 21.0429 37.2989 109.171 33.3146 13.7924 66.6048
internal_count=2503 1387 1116 1352 431 1271 203 56 685 628 82 50 1068 208 860 125 735 180 107 187 555 167 69 355
is_linear=0
shrinkage=0.03


Tree=7
num_leaves=25
num_cat=0
split_feature=0 0 0 9 9 9 0 9 5 9 9 9 5 0 0 0 9 9 0 9 0 9 8 4
split_gain=79.8542 37.5716 12.1682 10.6845 9.11847 13.0841 6.7057 8.86685 5.11374 6.45247 5.19814 17.6267 4.84847 5.75739 13.4893 10.9182 5.13763 16.3572 11.4327 8.28704 9.9268 6.57922 6.53879 5.36181
threshold=1.0000000180025095e-35 -1.9564192856255487 0.52462959109535223 -1.456498656485026 -1.4757443638167695 -2.0159072162610427 -0.52504493367118277 -1.6027660322062782 1.0000000180025095e-35 0.80936262003893245 0.37569268149697438 0.27818109768280613 1.0000000180025095e-35 -1.6701444152346754 -1.2884445880468445 -1.8609943288285906 -0.67640598597168167 -0.79444632427304274 -0.71589484726509822 -0.24530214174062284 -0.71589484726509822 -0.17601759534634517 1.0000000180025095e-35 1.0000000180025095e-35
decision_type=2 2 2 2 2 2 2 2 2 2 2 2 2 2 2 2 2 2 2 2 2 2 2 2
left_child=1 -1 -2 -4 5 -3 -7 -8 10 -10 11 -5 13 15 -15 -6 17 18 -16 -18 -21 -22 23 -23
right_child=2 4 3 8 12 6 7 -9 9 -11 -12 -13 -14 14 16 -17 19 -19 -20 20 21 22 -24 -25
leaf_value=-0.073280651232774455 0.0052531101996156878 0.012029065603087832 -0.016691805142827254 0.024282705468740302 -0.0012598761785887894 -0.057686003929471555 -0.043757097887279064 0.012708363861797869 0.023519066657213605 -0.024055034526135704 0.030904122615481335 -0.028068734227271182 -0.022890339041457184 0.015535539644305832 -0.037865407794989939 -0.061890992202168045 0.0071519068338320542 -0.050378787315884452 0.0034218613932928536 0.0044609430587769427 -0.050420782017283623 -0.011828620111237408 -0.032520738321731753 0.017486472184610125
leaf_weight=8.3280668407678586 81.497258380055428 6.2432606369257 6.6719221919775 45.063907697796822 6.3236187398433685 8.5795055925846135 6.4906945228576687 4.0738641321659026 5.7437314987182599 4.6374599933624268 53.386368215084076 6.6414603143930426 15.737578570842741 26.309452474117279 7.9246905446052507 4.6302773207426053 38.932601809501648 9.8808624595403654 25.32869312167168 33.806342974305153 4.4761576801538459 50.448941171169281 12.5163357257843 6.3185756653547278
leaf_count=35 431 32 33 255 32 40 30 20 32 24 305 36 78 137 40 23 205 46 129 174 21 251 62 32
internal_value=-2.3573e-05 -0.0105276 0.0142308 0.0202209 -0.00857776 -0.0256844 -0.0379835 -0.0219831 0.0223537 0.00226688 0.0243379 0.0175583 -0.00678786 -0.00567099 -0.00459468 -0.026889 -0.00738752 -0.0164877 -0.0064174 -0.00470811 -0.00900073 -0.0151706 -0.0128932 -0.00856567
internal_weight=479.992 276.35 203.642 122.145 268.021 25.3873 19.1441 10.5646 115.473 10.3812 105.092 51.7054 242.634 226.897 215.943 10.9539 189.633 43.1342 33.2534 146.499 107.566 73.76 69.2839 56.7675
internal_count=2503 1387 1116 685 1352 122 90 50 652 56 596 291 1230 1152 1097 55 960 215 169 745 540 366 345 283
is_linear=0
shrinkage=0.03


Tree=8
num_leaves=25
num_cat=0
split_feature=0 0 9 0 9 9 5 9 9 9 9 9 9 9 0 9 9 9 0 0 9 3 9 9
split_gain=69.2516 33.1954 14.8764 9.94124 9.74442 8.81438 6.01739 5.83824 8.70923 5.45712 13.6706 7.50165 7.96153 7.51884 10.8227 10.9019 7.52957 7.49444 8.3848 6.89505 5.23756 4.99501 6.91957 5.93666
threshold=0.14292976390752124 -1.9564192856255487 -1.5091035898584588 0.52462959109535223 -1.456498656485026 -1.8568093689852951 1.0000000180025095e-35 0.41418409616046142 0.27818109768280613 0.18195256102408755 0.36542830425337752 -0.47625062972154691 -0.32741715968939561 -0.947128935771543 -0.33419502007726731 -0.67640598597168167 -0.71874654210151745 -0.02461803100329478 -0.23877006328030961 -0.62046989046814038 0.44754332220215071 1.0000000180025095e-35 -1.1447181977107781 -1.3038160449865261
decision_type=2 2 2 2 2 2 2 2 2 2 2 2 2 2 2 2 2 2 2 2 2 2 2 2
left_child=1 -1 5 -2 -5 -3 7 8 -6 11 -11 13 -13 21 15 16 -15 18 -14 -19 -8 22 23 -4
right_child=3 2 9 4 6 -7 20 -9 -10 10 -12 12 17 14 -16 -17 -18 19 -20 -21 -22 -23 -24 -25
leaf_value=-0.064253188892149607 0.004569096362861594 -0.0094841275725234767 0.0031363297285806079 -0.016072510432561554 0.021903486454486063 -0.046904093690298493 0.024870063457210295 0.03097217938818184 -0.010342121033905916 -0.034582662473587704 -0.0058572287706628659 0.021557152727012582 -0.019771674582717558 -0.0096241902842110968 -0.035908619368930278 0.014213738253038493 -0.054619598020312118 0.03611724646956363 0.012538635074971898 -0.0017717665865497887 -0.018486690260017483 0.029117364376523052 0.015057652420411651 -0.031676152048578293
leaf_weight=9.6597743034362775 66.42134203016758 9.974244490265848 8.749875873327257 6.7203733325004569 46.393639847636223 13.114213004708288 4.2539073228836042 47.823385789990425 9.0009923875331861 18.126113921403885 84.055860444903374 19.404829040169716 22.561513736844063 12.597446680068972 16.120525479316715 13.83402359485626 4.5583094507455817 7.6877322793006924 10.636437669396399 9.8755162805318815 6.1083683967590332 5.3306793123483649 12.094932749867441 8.8861516863107664
leaf_count=40 351 50 45 33 266 60 24 278 49 86 425 103 114 61 80 73 21 41 55 51 32 28 65 43
internal_value=-0.000338222 -0.00958319 -0.00768087 0.013885 0.0190285 -0.0307386 0.0211054 0.0232933 0.0166639 -0.00558921 -0.0109528 -0.00199151 0.00521282 -0.00814324 -0.015972 -0.0056012 -0.0215795 -0.00103524 -0.00941963 0.0148129 -0.000687935 0.00237582 -0.00241887 -0.0144044
internal_weight=473.99 287.268 277.608 186.722 120.301 23.0885 113.58 103.218 55.3946 254.52 102.182 152.338 70.166 82.1719 47.1103 30.9898 17.1558 50.7612 33.198 17.5632 10.3623 35.0616 29.731 17.636
internal_count=2474 1441 1401 1033 682 110 649 593 315 1291 511 780 364 416 235 155 82 261 169 92 56 181 153 88
is_linear=0
shrinkage=0.03


Tree=9
num_leaves=25
num_cat=0
split_feature=0 0 9 0 9 9 5 9 9 9 9 9 9 9 0 8 9 0 9 9 8 9 0 3
split_gain=65.3725 30.81 13.7769 9.56611 9.29464 8.0566 5.80009 5.72199 8.32491 5.09473 12.6084 7.0479 7.58784 7.07044 7.83045 7.03471 7.01321 9.92983 10.2115 6.87251 6.91924 4.94679 4.94194 4.76871
threshold=0.14292976390752124 -1.9564192856255487 -1.5091035898584588 0.52462959109535223 -1.456498656485026 -1.8568093689852951 1.0000000180025095e-35 0.41418409616046142 0.27818109768280613 0.18195256102408755 0.36542830425337752 -0.47625062972154691 -0.32741715968939561 -0.02461803100329478 -0.23877006328030961 1.0000000180025095e-35 -0.947128935771543 -0.33419502007726731 -0.67640598597168167 -0.71874654210151745 1.0000000180025095e-35 0.44754332220215071 -0.52504493367118277 1.0000000180025095e-35
decision_type=2 2 2 2 2 2 2 2 2 2 2 2 2 2 2 2 2 2 2 2 2 2 2 2
left_child=1 -1 5 -2 -5 22 7 8 -6 11 -11 16 -13 14 -14 -15 23 18 19 20 -18 -8 -3 -4
right_child=3 2 9 4 6 -7 21 -9 -10 10 -12 12 13 15 -16 -17 17 -19 -20 -21 -22 -23 -24 -25
leaf_value=-0.061642257814594835 0.0044421548943786781 -0.032885779181017191 -0.002343010618595185 -0.015482100829097937 0.021509574127152369 -0.044771874718173274 0.024457544989184912 0.030580371386799202 -0.0099780983649578447 -0.03309675960278103 -0.0056661951846196526 0.021140577586854174 -0.019007018714735674 0.024544615379721312 0.012236385419166083 -0.021608026234681853 -0.025211625799677919 -0.034304075553878412 0.0138859847324587 -0.051964463134249933 0.021645461026564849 -0.017771076067561203 0.0095562789174436572 0.028657859082319864
leaf_weight=9.7651618719100934 66.272158533334732 4.4170658439397812 29.740312486886978 6.7666339427232733 45.83450473845005 13.323292210698126 4.1967583894729596 46.995609283447266 9.0487451851367933 18.367896884679794 84.279604762792587 19.196764424443245 22.761959463357925 13.631070628762247 10.573164805769919 3.8011843562126151 8.3516959249973315 16.36446996033192 13.737220123410223 4.6460853070020667 4.2948457598686209 6.1628618240356445 5.5989898592233676 5.2548223882913581
leaf_count=40 351 22 153 33 266 60 24 278 49 86 425 103 114 73 55 19 40 80 73 21 21 32 28 28
internal_value=-0.000325131 -0.00926534 -0.00742778 0.0135769 0.0186639 -0.0294893 0.0207225 0.0228971 0.0163181 -0.00540856 -0.0105747 -0.00192792 0.00507409 -0.00100116 -0.0090973 0.0144808 -0.00787395 -0.0153951 -0.00542292 -0.0207619 -0.00929866 -0.000663951 -0.00916061 0.00231204
internal_weight=473.383 288.106 278.34 185.277 119.005 23.3393 112.238 101.879 54.8832 255.001 102.648 152.354 69.9641 50.7674 33.3351 17.4323 82.3895 47.3943 31.0298 17.2926 12.6465 10.3596 10.0161 34.9951
internal_count=2474 1441 1401 1033 682 110 649 593 315 1291 511 780 364 261 169 92 416 235 155 82 61 56 50 181
is_linear=0
shrinkage=0.03


Tree=10
num_leaves=25
num_cat=0
split_feature=0 0 9 9 9 0 9 9 0 9 0 9 7 0 9 9 0 0 9 4 5 0 0 2
split_gain=61.488 25.0089 9.39555 18.2507 9.10512 8.38598 6.66943 19.2547 12.084 8.9745 6.29885 7.46363 6.2287 18.7656 6.1537 4.93829 8.73741 10.4515 7.39773 6.91594 4.65141 4.56458 7.41545 7.31928
threshold=0.52462959109535223 -1.9564192856255487 -1.5437458630555974 -2.0159072162610427 -1.456498656485026 -0.047920149686394221 0.18195256102408755 0.36542830425337752 -0.81131980406205584 0.042100421080083335 0.42920463429839445 1.0685381454397478 1.0000000180025095e-35 -0.52504493367118277 -0.096468671708471093 -0.67640598597168167 -1.2884445880468445 -1.0975946744529288 -0.947128935771543 1.0000000180025095e-35 1.0000000180025095e-35 -0.62046989046814038 -1.0021697176559712 1.0000000180025095e-35
decision_type=2 2 2 2 2 2 2 2 2 2 2 2 2 2 2 2 2 2 2 2 2 2 2 2
left_child=1 -1 3 -3 -2 6 9 -8 20 12 -7 14 15 -14 -12 16 -4 -18 -19 21 -9 22 23 -17
right_child=4 2 5 -5 -6 10 7 8 -10 -11 11 -13 13 -15 -16 19 17 18 -20 -21 -22 -23 -24 -25
leaf_value=-0.057665210228591071 -0.014918714595006596 0.014160665254086323 0.014952903994117944 -0.041322662997180681 0.020836542034208882 0.0074335941615633486 -0.043346111997873062 0.014406013968785547 -0.015834301693844061 0.02663186374623026 -0.01817459744266799 -0.044532507174652271 -0.056533558090590692 0.0087866579785014012 0.027378789956455846 -0.017642164597464455 -0.062033808100132939 0.0004403138686499249 -0.027311110778891777 -0.035942389217421843 -0.021392106146999892 -0.0023724294718232889 0.029455661325040919 0.022869059134114668
leaf_weight=8.3713743686676008 6.8108141571283332 7.9226840436458614 10.404711723327635 16.341302365064621 108.88036704063416 75.82562430202961 15.782526925206183 22.906136304140094 48.401460230350494 8.7351412028074247 6.6143126785755149 4.812446415424346 7.5753488242626181 8.290042504668234 4.4743879884481421 9.3027930259704643 3.9814138114452353 21.341839939355847 14.531499907374384 3.8991088718175879 3.8100320845842353 33.942118838429458 14.218238964676848 7.0599782764911643
leaf_count=34 33 41 54 75 637 402 73 119 239 46 34 23 37 42 23 49 19 109 66 20 19 175 76 38
internal_value=-0.000285335 -0.00642151 -0.00519646 -0.0232062 0.0187316 -0.00385563 -0.00686739 -0.0132237 -0.00689481 -0.00283489 0.00383353 -0.0133336 -0.00474795 -0.0224022 0.000206594 -0.00238793 -0.00952807 -0.0159192 -0.0108012 0.00285686 0.00930079 0.00520148 0.0136078 -0.000162952
internal_weight=474.236 358.545 350.173 24.264 115.691 325.909 234.182 90.9002 75.1176 143.282 91.7268 15.9011 134.547 15.8654 11.0887 118.682 50.2595 39.8548 35.8733 68.4222 26.7162 64.5231 30.581 16.3628
internal_count=2483 1813 1779 116 670 1663 1181 450 377 731 482 80 685 79 57 606 248 194 175 358 138 338 163 87
is_linear=0
shrinkage=0.03


Tree=11
num_leaves=25
num_cat=0
split_feature=0 0 9 9 9 0 9 9 0 9 0 9 9 7 0 9 0 0 9 4 5 0 0 0
split_gain=58.2879 23.3563 8.75023 16.8786 8.68659 7.86967 6.21856 17.7095 11.3049 8.5268 5.92089 6.86166 5.81753 5.78662 17.1508 4.63322 8.19298 9.5025 6.87878 6.42311 4.38256 4.37431 4.33362 7.13111
threshold=0.52462959109535223 -1.9564192856255487 -1.5437458630555974 -2.0159072162610427 -1.456498656485026 -0.047920149686394221 0.18195256102408755 0.36542830425337752 -0.81131980406205584 0.042100421080083335 0.42920463429839445 1.0685381454397478 -0.096468671708471093 1.0000000180025095e-35 -0.52504493367118277 -0.67640598597168167 -1.2884445880468445 -1.0975946744529288 -1.4244224775987864 1.0000000180025095e-35 1.0000000180025095e-35 -0.62046989046814038 -0.62046989046814038 -1.0021697176559712
decision_type=2 2 2 2 2 2 2 2 2 2 2 2 2 2 2 2 2 2 2 2 2 2 2 2
left_child=1 -1 3 -3 -2 6 9 21 20 13 -7 12 -12 15 -15 16 -4 -18 -19 22 -9 -8 23 -17
right_child=4 2 5 -5 -6 10 7 8 -10 -11 11 -13 -14 14 -16 19 17 18 -20 -21 -22 -23 -24 -25
leaf_value=-0.055579825425307094 -0.014380649634930156 0.013830651741573025 0.014608806795628837 -0.039530052915064708 0.020453988795579681 0.0072374653585854142 -0.030100776558240866 0.014072512033531576 -0.01525292898035417 0.02617905918648308 -0.017477910516907863 -0.042432730342632355 0.026911403358301667 -0.053579131493375197 0.0085576903373052841 -0.00015508181738427436 -0.058775699211325638 0.026686658915890716 -0.015070456732974595 -0.03428614142759346 -0.020553543438587951 -0.063143648120438503 -0.0022986672263577666 0.02900741547841458
leaf_weight=8.4240537285804731 6.8530187010765067 7.8691961169242886 10.331415638327597 16.566325634717941 107.6086992174387 75.548286348581314 10.547122046351435 22.747943267226223 48.733738943934441 8.6213750243186933 6.6707462370395652 4.8977223038673392 4.4164174795150748 7.7504841685295132 8.2570016831159574 16.360568374395374 4.0745656341314307 3.9935215413570395 32.007617592811584 3.9638176262378684 3.8459514379501334 5.4788092672824851 33.979767054319389 14.008010432124129
leaf_count=34 33 41 54 75 637 402 49 119 239 46 34 23 23 37 42 87 19 20 155 20 19 24 175 76
internal_value=-0.000273893 -0.00621614 -0.00503029 -0.0223458 0.0183684 -0.00373333 -0.00664314 -0.0127602 -0.00666767 -0.00274485 0.00372778 -0.0128598 0.000203955 -0.00459573 -0.0215276 -0.00231272 -0.00921202 -0.015353 -0.0104384 0.00277823 0.00906497 -0.0413972 0.00506137 0.0132966
internal_weight=473.556 359.094 350.67 24.4355 114.462 326.235 234.702 91.3536 75.3276 143.348 91.5332 15.9849 11.0872 134.727 16.0075 118.719 50.4071 40.0757 36.0011 68.3122 26.5939 16.0259 64.3483 30.3686
internal_count=2483 1813 1779 116 670 1663 1181 450 377 731 482 80 57 685 79 606 248 194 175 358 138 73 338 163
is_linear=0
shrinkage=0.03


Tree=12
num_leaves=25
num_cat=0
split_feature=0 0 9 0 9 9 9 9 9 0 9 9 9 9 9 3 9 9 9 0 0 9 5 0
split_gain=54.3315 24.0493 14.7197 10.4927 6.80072 11.8521 11.7965 9.73498 8.63134 13.6139 10.8315 6.71739 17.2897 12.0758 16.0951 16.2698 15.9619 5.79386 12.7883 5.85019 5.60626 8.74215 6.95855 7.14733
threshold=-0.047920149686394221 -1.9564192856255487 -1.456498656485026 1.1926042886740562 -1.1703791408197699 -0.24530214174062284 -1.3038160449865261 -0.17601759534634517 -1.4757443638167695 -0.52504493367118277 -1.6989945688649968 -0.99973386914497575 -0.26968003769416454 -0.947128935771543 -0.48779805412059357 1.0000000180025095e-35 -0.39413561177277373 0.95178085429383574 1.1224261259686299 0.81090446148622541 -0.42961997687422504 1.4329235375874283 1.0000000180025095e-35 -1.6701444152346754
decision_type=2 2 2 2 2 2 2 2 2 2 2 2 2 2 2 2 2 2 2 2 2 2 2 2
left_child=1 -1 -2 11 6 -6 8 -7 9 10 -3 -4 13 -13 15 -15 -16 -14 -19 -20 22 -22 23 -9
right_child=2 4 3 -5 5 7 -8 20 -10 -11 -12 12 17 14 16 -17 -18 18 19 -21 21 -23 -24 -25
leaf_value=-0.057414995008793719 -0.018264274989842118 -0.012614136236796223 0.030195631785131568 0.025606579358192289 0.0039179137861059055 -0.04970254380742363 -0.057549118452368826 -0.038990287315359543 0.016609084711614149 0.0031313798026567159 -0.068916099394123381 -0.059759007629198328 0.019903734137723946 0.025173037327719149 -0.084444505493174477 -0.043385641406468618 -0.0078974304048303693 -0.033102993419631153 0.0037178721942211857 0.034205127658394265 -0.022920478332537599 0.018881110577688348 -0.033678639840269142 0.00045898312634763851
leaf_weight=8.7108182162046415 13.471566945314406 5.8768392056226748 13.359272971749304 52.645756989717484 86.640706047415733 5.4297568798065177 5.8800084292888632 4.3787317126989356 7.5920632779598263 11.67105759680271 6.4509591460227966 3.9117509871721259 62.168384805321693 16.361319050192836 3.6292926967144012 3.8479837179183951 7.5561903119087237 6.5738788843154898 17.114769816398624 8.4671789258718473 36.253182396292686 5.1412802934646598 6.6679151207208625 73.775908842682838
leaf_count=35 67 28 75 315 445 25 27 21 40 55 28 21 350 89 20 20 41 36 91 52 177 25 32 372
internal_value=0.000640111 -0.00839532 0.0120677 0.0141564 -0.00672577 -0.00469895 -0.0185331 -0.01037 -0.011271 -0.0200909 -0.0420761 0.00994067 0.00785327 -0.0100546 -0.00386152 0.012119 -0.0327342 0.0145564 0.0042181 0.0138086 -0.00867791 -0.0177286 -0.00426104 -0.00175122
internal_weight=473.577 264.469 209.107 195.636 255.758 218.287 37.4709 131.647 31.5909 23.9989 12.3278 142.99 129.631 35.3065 31.3948 20.2093 11.1855 94.3242 32.1558 25.5819 126.217 41.3945 84.8226 78.1546
internal_count=2487 1310 1177 1110 1275 1097 178 652 151 111 56 795 720 191 170 109 61 529 179 143 627 202 425 393
is_linear=0
shrinkage=0.03


Tree=13
num_leaves=25
num_cat=0
split_feature=0 0 9 0 9 9 9 9 3 9 9 9 9 9 9 0 9 9 9 0 0 9 5 0
split_gain=51.3203 22.5536 13.9237 10.1609 6.48448 16.3684 10.9496 14.9509 15.2862 14.0775 6.34642 11.0995 10.7569 8.94004 8.09248 12.5973 9.88405 5.56054 11.945 5.68137 5.20657 8.15222 6.44236 6.61838
threshold=-0.047920149686394221 -1.9564192856255487 -1.456498656485026 1.1926042886740562 -0.99973386914497575 -0.26968003769416454 -0.947128935771543 -0.48779805412059357 1.0000000180025095e-35 -0.39413561177277373 -1.1703791408197699 -0.24530214174062284 -1.3038160449865261 -0.17601759534634517 -1.4757443638167695 -0.52504493367118277 -1.6989945688649968 0.95178085429383574 1.1224261259686299 0.81090446148622541 -0.42961997687422504 1.4329235375874283 1.0000000180025095e-35 -1.6701444152346754
decision_type=2 2 2 2 2 2 2 2 2 2 2 2 2 2 2 2 2 2 2 2 2 2 2 2
left_child=1 -1 -2 4 -4 6 -6 8 -8 -9 12 -12 14 -13 15 16 -3 -7 -19 -20 22 -22 23 -15
right_child=2 10 3 -5 5 17 7 9 -10 -11 11 13 -14 20 -16 -17 -18 18 19 -21 21 -23 -24 -25
leaf_value=-0.055521737085700011 -0.01757501269065034 -0.012176126045079049 0.029776713319722134 0.025214395177328805 -0.056262128561929713 0.019516777355583648 0.024739857440403065 -0.078451600890433681 -0.04130387837092378 -0.007629315005678902 0.0038073078797453202 -0.047373733038285633 -0.054728544006290396 -0.03724864774398929 0.01624501305596901 0.0030409661833012041 -0.065668327186629002 -0.031573664737364782 0.0036129493210240613 0.033872006715645886 -0.022020725108140085 0.018464502372866454 -0.032228501294059186 0.00044530669935721371
leaf_weight=8.7371706217527372 13.578236803412436 5.9051579535007495 13.144074663519858 51.872449830174446 4.0283701717853537 61.509043037891388 16.151560202240947 3.7867866158485413 3.9195377081632605 7.5866119116544741 86.485367670655251 5.5242755413055411 5.9957163780927649 4.4449203163385382 7.530291602015498 11.657725036144255 6.5650768578052521 6.6837972253561011 17.083918765187267 8.2965236008167249 36.597049430012703 5.1001921743154517 6.7574942111968985 73.760762572288513
leaf_count=35 67 28 75 315 21 350 89 20 20 41 445 25 27 21 40 55 28 36 91 52 177 25 32 372
internal_value=0.000625781 -0.00812316 0.0117941 0.013849 0.00970283 0.00765819 -0.009695 -0.00372927 0.0118427 -0.0312097 -0.00650751 -0.00454866 -0.0178833 -0.0100158 -0.0109052 -0.0193787 -0.0403376 0.0142366 0.00410773 0.0135042 -0.00838641 -0.0170688 -0.00412538 -0.00169708
internal_weight=472.702 265.061 207.641 194.063 142.19 129.046 35.4729 31.4445 20.0711 11.3734 256.324 218.67 37.654 132.185 31.6583 24.128 12.4702 93.5733 32.0642 25.3804 126.66 41.6972 84.9632 78.2057
internal_count=2487 1310 1177 1110 795 720 191 170 109 61 1275 1097 178 652 151 111 56 529 179 143 627 202 425 393
is_linear=0
shrinkage=0.03


Tree=14
num_leaves=25
num_cat=0
split_feature=0 0 9 0 9 9 5 9 9 9 9 9 0 9 9 0 9 5 9 9 5 9 9 9
split_gain=48.271 21.0693 7.63114 6.04104 5.24032 12.8829 6.8752 5.83225 12.1296 4.50258 15.7785 7.41405 11.9285 5.46952 17.2495 6.47424 4.52143 4.44896 4.41938 5.95115 4.31795 4.30763 4.03325 4.02231
threshold=0.52462959109535223 -1.9564192856255487 -1.456498656485026 -0.047920149686394221 -0.66614160872808481 -0.47625062972154691 1.0000000180025095e-35 0.37569268149697438 0.27818109768280613 -1.2383806400585975 -1.3038160449865261 -1.4757443638167695 -0.52504493367118277 0.18195256102408755 0.2987098521699994 -0.71589484726509822 0.40905190753866322 1.0000000180025095e-35 0.7118510362247642 0.48346864255473915 1.0000000180025095e-35 -1.6669183899787574 0.09085621298716727 -0.26968003769416454
decision_type=2 2 2 2 2 2 2 2 2 2 2 2 2 2 2 2 2 2 2 2 2 2 2 2
left_child=1 -1 -2 9 -4 -6 7 8 22 10 11 12 21 20 -15 18 -17 23 19 -16 -11 -3 -7 -5
right_child=2 3 4 17 5 6 -8 -9 -10 13 -12 -13 -14 14 15 16 -18 -19 -20 -21 -22 -23 -24 -25
leaf_value=-0.050638557802880881 -0.015326338331305299 -0.019941155763839116 0.035642430908525521 -0.0061598888448309705 -0.023227508385965316 0.012176839018637203 -0.0058484919148704666 0.029038154466852362 -0.02354289267383522 0.00050564054495958128 -0.06994376986567169 0.018351743071555932 0.0040139041841545089 -0.050877547924810668 0.0084992949776426085 -0.039771221070071083 -0.010245448880203119 0.032789139170352734 0.013402300968475233 -0.027961398943573065 -0.022767965754218834 -0.056508181989664376 0.037685566519999492 0.0065289885002547095
leaf_weight=8.9989984631538373 6.1503610759973517 5.6689772009849548 14.747128233313559 40.315908044576645 6.8417642563581458 14.051643282175069 8.6182235777378065 46.726633951067924 6.6831524819135657 118.5245768725872 4.3621740043163291 6.9231744259595898 12.002936422824858 8.6354155987501127 8.9277211874723452 5.2237209975719443 43.864163994789124 4.1197032183408728 18.790646314620972 7.3425701260566703 7.6367812156677237 5.9345269799232501 9.2513368278741819 50.833131834864616
leaf_count=36 29 27 91 211 41 86 48 295 37 609 19 37 57 38 44 23 212 22 98 37 36 25 57 272
internal_value=8.04744e-05 -0.00531515 0.017169 -0.00414684 0.0190382 0.0163816 0.0195575 0.0224117 0.0120858 -0.0065645 -0.0165733 -0.00894752 -0.0169537 -0.00496948 -0.0104986 -0.00635485 -0.0133875 0.00229487 0.00349131 -0.00795494 -0.000903154 -0.0386431 0.0223039 0.000916602
internal_weight=471.175 358.105 113.07 349.106 106.92 92.1728 85.331 76.7128 29.9861 253.837 34.8918 30.5296 23.6064 218.946 92.7842 84.1488 49.0879 95.2687 35.0609 16.2703 126.161 11.6035 23.303 91.149
internal_count=2487 1803 684 1767 655 564 523 475 180 1262 165 146 109 1097 452 414 235 505 179 81 645 52 143 483
is_linear=0
shrinkage=0.03


Tree=15
num_leaves=25
num_cat=0
split_feature=0 0 3 7 0 5 5 0 0 0 6 3 8 2 0 2 7 0 0 2 7 0 5 0
split_gain=45.8038 19.8317 7.46429 5.87875 5.66893 4.26478 4.082 3.96113 8.1858 7.30205 4.10618 5.50598 7.79073 7.65854 4.94502 4.44345 3.60119 7.35332 3.28716 3.11732 2.8919 2.47851 2.38405 2.27349
threshold=0.52462959109535223 -1.9564192856255487 1.0000000180025095e-35 1.0000000180025095e-35 -0.047920149686394221 1.0000000180025095e-35 1.0000000180025095e-35 -1.2884445880468445 -1.6701444152346754 -1.8609943288285906 1.0000000180025095e-35 1.0000000180025095e-35 1.0000000180025095e-35 1.0000000180025095e-35 -0.62046989046814038 1.0000000180025095e-35 1.0000000180025095e-35 0.33377967750143672 -0.14334510648335191 1.0000000180025095e-35 1.0000000180025095e-35 -0.62046989046814038 1.0000000180025095e-35 0.33377967750143672
decision_type=2 2 2 2 2 2 2 2 2 2 2 2 2 2 2 2 2 2 2 2 2 2 2 2
left_child=1 -1 22 -4 6 16 7 8 9 -3 11 12 15 14 -13 20 23 -18 19 21 -9 -12 -2 -6
right_child=2 4 3 -5 5 -7 -8 10 -10 -11 18 13 -14 -15 -16 -17 17 -19 -20 -21 -22 -23 -24 -25
leaf_value=-0.049124572034695564 0.021723215701790571 0.00487978825652618 0.0085906647122502879 -0.031793482635681047 0.0060038483773621233 0.032343929389864037 -0.020660933539711761 -0.0015352657565225621 0.012282088633630736 -0.04479882511908638 -0.021301935993796178 -0.053635506923192133 -0.019918867042419349 0.0064790293473466348 -0.01977839246637032 -0.01347029281504732 -0.046373611124160503 0.0083993818298044934 0.028352818125149525 0.016886583096817571 0.017969552687260599 0.0035159408114798936 0.0042830084976399176 -0.0050343479976847636
leaf_weight=8.9980366230010969 85.692281693220139 5.6073386818170547 14.292968735098841 4.1967550665140143 58.725556865334511 4.0521440356969824 16.766078442335129 84.674861669540405 27.213915064930916 5.0710379630327207 6.8968275189399755 6.4853216856718108 31.523700043559074 5.9362047910690299 9.6738109290599823 28.743197157979012 4.153679743409155 4.7042886167764664 4.249454826116561 6.381293684244155 7.4426901787519446 7.6263013631105441 7.6871137470006934 23.519088491797447
leaf_count=36 530 28 87 24 314 22 79 425 142 24 33 31 153 30 48 140 22 25 21 34 37 37 43 122
internal_value=8.07925e-05 -0.00514945 0.0168393 -0.000575636 -0.00401712 0.00222932 -0.00635451 -0.00534467 0.00354768 -0.018712 -0.00703252 -0.00866615 -0.00663685 -0.0226616 -0.0333666 -0.00317254 0.000889854 -0.0172848 0.00429914 -0.000590493 4.06372e-05 -0.00826972 0.0202875 0.00284731
internal_weight=470.314 358.445 111.869 18.4897 349.447 95.1548 254.292 237.526 37.8923 10.6784 199.634 174.48 152.384 22.0953 16.1591 120.861 91.1026 8.85797 25.1539 20.9044 92.1176 14.5231 93.3794 82.2446
internal_count=2487 1803 684 111 1767 505 1262 1183 194 52 989 864 755 109 79 602 483 47 125 104 462 70 573 436
is_linear=0
shrinkage=0.03


Tree=16
num_leaves=25
num_cat=0
split_feature=0 0 9 9 9 3 9 0 5 0 9 0 9 9 9 9 9 9 9 0 7 0 0 8
split_gain=43.2297 24.4232 8.11751 9.48985 7.54853 12.3649 10.4779 8.56207 6.30842 5.3989 7.99157 10.1969 4.69158 11.4904 13.7027 4.34493 3.38134 14.6685 5.35186 4.91624 3.94771 10.0899 3.60014 5.38823
threshold=0.23835472070447897 -1.9564192856255487 -1.5437458630555974 -2.1660237334486436 -0.15805493517005098 1.0000000180025095e-35 -0.99203558621227794 1.2880292454710141 1.0000000180025095e-35 0.62005454789230996 1.0685381454397478 0.42920463429839445 -0.39670170608367322 -0.55579955335942099 -0.82908859747018127 -1.6989945688649968 0.16783904231414226 0.36542830425337752 -0.02461803100329478 -0.62046989046814038 1.0000000180025095e-35 -0.52504493367118277 -1.0975946744529288 1.0000000180025095e-35
decision_type=2 2 2 2 2 2 2 2 2 2 2 2 2 2 2 2 2 2 2 2 2 2 2 2
left_child=1 -1 3 -3 5 6 15 12 9 10 -6 -12 13 14 -8 -2 18 -18 20 -20 -4 -22 -19 -24
right_child=4 2 16 -5 8 -7 7 -9 -10 -11 11 -13 -14 -15 -16 -17 17 22 19 -21 21 -23 23 -25
leaf_value=-0.054482224243842574 -0.0017819094383254134 0.010761948101077345 -0.00097284411141885304 -0.032879691529776815 0.019736551500419308 -0.035866054962574681 -0.045784457138788801 0.027694779256701822 -0.0078165027597812721 0.024617467531256699 0.01456665270931386 -0.044026740513487463 0.0097656311709028651 -0.057385981901701945 0.027875065361321456 0.033029989172737494 -0.028342432235201435 0.010574077237055755 0.034743609132838194 0.0022976976404047562 -0.040509975626189139 0.0053390518652932286 -0.001447861641246419 -0.024973470937252724
leaf_weight=9.2357047796249372 4.0910838991403606 6.0058324038982418 134.98393024504185 17.701343566179276 23.325026512145996 6.3262188285589209 3.8176228106021899 6.1851413697004309 8.2590724229812604 64.073178634047508 6.0202429294586164 4.8078737705945969 6.01856501400471 5.2242702990770331 5.6175740361213684 15.273629575967787 24.072117388248444 16.829488217830658 6.7950596660375622 11.017856553196905 8.1395855695009249 9.2053857147693616 60.258857920765877 10.252928406000136
leaf_count=37 20 31 688 79 132 35 20 39 46 410 33 23 33 28 33 89 111 87 38 58 38 47 299 50
internal_value=2.71214e-05 -0.0064187 -0.00496454 -0.0218238 0.0127736 0.00347024 0.00885335 -0.00327311 0.0173652 0.0194825 0.00984903 -0.0114498 -0.0125361 -0.0216923 -0.00192869 0.0256755 -0.00354498 -0.00760774 -0.00088458 0.0146748 -0.00270405 -0.0161768 -0.00189305 -0.00486866
internal_weight=473.538 314.498 305.262 23.7072 159.04 52.5541 46.2279 26.8632 106.485 98.2263 34.1531 10.8281 20.678 14.6595 9.4352 19.3647 281.555 111.413 170.142 17.8129 152.329 17.345 87.3413 70.5118
internal_count=2504 1563 1526 110 941 297 262 153 644 598 188 56 114 81 53 109 1416 547 869 96 773 85 436 349
is_linear=0
shrinkage=0.03


Tree=17
num_leaves=25
num_cat=0
split_feature=0 0 0 0 0 3 0 5 7 0 0 6 6 0 7 8 3 2 0 5 2 0 0 0
split_gain=40.9007 23.0722 6.0332 10.7416 4.565 5.15765 4.49462 3.13157 2.71975 2.0222 2.60197 4.97073 3.81284 5.39391 2.9979 4.3945 3.56807 14.0774 3.58245 3.93194 4.07713 3.48036 2.51128 2.42286
threshold=0.23835472070447897 -1.9564192856255487 1.1926042886740562 1.0971793318770986 0.52462959109535223 1.0000000180025095e-35 0.42920463429839445 1.0000000180025095e-35 1.0000000180025095e-35 -0.047920149686394221 -1.2884445880468445 1.0000000180025095e-35 1.0000000180025095e-35 -0.90674476085901368 1.0000000180025095e-35 1.0000000180025095e-35 1.0000000180025095e-35 1.0000000180025095e-35 -0.52504493367118277 1.0000000180025095e-35 1.0000000180025095e-35 -0.52504493367118277 -0.23877006328030961 -0.52504493367118277
decision_type=2 2 2 2 2 2 2 2 2 2 2 2 2 2 2 2 2 2 2 2 2 2 2 2
left_child=1 -1 3 4 6 -6 8 -4 -2 10 11 -3 14 -14 15 16 18 23 -12 20 -20 -16 -15 -18
right_child=2 9 7 -5 5 -7 -8 -9 -10 -11 12 -13 13 22 21 -17 17 -19 19 -21 -22 -23 -24 -25
leaf_value=-0.053002449462761746 0.0071621970371498938 0.0054253515254395748 0.023545842126024622 -0.026834383834938597 0.021572605981381773 -0.0038630656010953776 -0.0094889837509415497 -0.00090038062623024203 0.032558776061392972 0.00087274489165293525 -0.00059118875438758255 -0.023983464541887618 -0.028098904777005437 0.0027615932408162867 -0.010614082634486141 -0.019775030073818849 -0.049536547665233945 0.027276322810797161 -0.0043823780541137119 -0.037281968297464316 -0.023501159863769536 0.014747052985825499 0.024803235594522261 -0.022916432543966362
leaf_weight=9.2091245353221876 29.669704839587212 34.953252226114273 45.519034817814827 7.2374070435762397 42.478908583521843 8.6328712999820691 14.59834338724613 5.2611646056175223 4.3517069816589347 47.62053208053112 60.292150661349297 6.0710001438856116 4.0656064003706005 15.143976032733921 9.4067588001489657 32.784573003649712 6.3994311541318902 4.1272055208683005 44.442374676465988 4.6856257915496817 12.967883974313734 10.097735702991484 6.7148736119270298 5.9272940903902063
leaf_count=37 163 180 291 42 265 53 73 30 24 252 302 28 19 75 45 157 30 21 221 21 62 51 33 29
internal_value=2.91526e-05 -0.00621687 0.0124979 0.00845557 0.0110165 0.0172765 0.00443571 0.0210131 0.0104107 -0.00480747 -0.00585558 0.00107327 -0.00716515 0.00363105 -0.00862952 -0.00989612 -0.00756342 -0.0206797 -0.00580005 -0.0108576 -0.00870095 0.00251571 0.00953262 -0.0367363
internal_weight=472.659 314.909 157.749 106.969 99.7315 51.1118 48.6198 50.7802 34.0214 305.7 258.08 41.0243 217.055 25.9245 191.131 171.627 138.842 16.4539 122.388 62.0959 57.4103 19.5045 21.8588 12.3267
internal_count=2504 1563 941 620 578 318 260 321 187 1526 1274 208 1066 127 939 843 686 80 606 304 283 96 108 59
is_linear=0
shrinkage=0.03


Tree=18
num_leaves=25
num_cat=0
split_feature=9 9 9 9 7 9 9 9 9 9 9 9 9 7 9 9 9 9 9 9 9 9 9 2
split_gain=11.645 5.74497 8.65776 9.02596 5.61215 5.34205 7.08699 5.23231 16.5749 5.24989 6.94499 5.3729 10.3507 5.10014 14.1639 7.66139 4.88897 4.45842 11.1307 14.4395 5.85806 5.6933 4.66027 4.09427
threshold=-1.4757443638167695 0.40905190753866322 0.27818109768280613 0.2987098521699994 1.0000000180025095e-35 0.63358515974233975 0.66052915000678114 0.80936262003893245 0.84785403470241993 0.91970467540759626 1.1224261259686299 1.0390280608644071 0.99797055189002093 1.0000000180025095e-35 -0.82267336169293381 -0.3222849710675974 1.1698988707202644 -0.42236264919266475 -0.32741715968939561 -0.17601759534634517 0.16783904231414226 -0.54681822327127383 -0.20296158561078645 1.0000000180025095e-35
decision_type=2 2 2 2 2 2 2 2 2 2 2 2 2 2 2 2 2 2 2 2 2 2 2 2
left_child=23 2 13 -4 5 -3 -7 -8 -9 -10 11 12 -11 17 -15 -16 -12 21 -19 22 -21 -2 -20 -1
right_child=1 4 3 -5 -6 6 7 8 9 10 16 -13 -14 14 15 -17 -18 18 19 20 -22 -23 -24 -25
leaf_value=-0.011039337424738289 0.00022705513508238109 0.015398316239260896 -0.056708910757490787 -0.010036905052181237 0.022397908770412502 -0.037427772787187813 0.017856075164003112 -0.04859128757398843 0.024284141814786105 -0.028580038541957026 0.030566996870854155 -0.034739211150658096 0.032610856831952542 0.029229913686767996 -0.047302031623812392 -0.0092275508194987997 0.0022629635283564075 0.027186533818402792 -0.013669165041586707 0.012716240402783567 -0.0080321522071111311 -0.018676067956172302 -0.049295137057606991 -0.034555487826691135
leaf_weight=29.38323275744915 100.22648149728775 27.771803081035614 4.4831279069185284 22.177366241812706 16.043233051896095 4.2255938202142707 16.240065261721611 6.0519225448369971 9.1389296203851682 5.6454825997352618 6.173307627439498 7.821703389286994 4.4482215195894241 5.6559468358755138 7.9822192341089293 11.769871696829792 49.796350106596947 18.460925132036209 14.306986019015314 52.728437632322311 15.952020391821859 16.733832657337189 4.2971612364053717 8.6174290180206281
leaf_count=137 527 153 22 113 92 23 86 33 46 30 34 41 25 31 39 61 279 101 76 293 84 90 19 40
internal_value=-0.000456277 0.000956403 -0.00163981 -0.0178851 0.00560812 0.00364646 0.000667042 0.00219552 -0.000659667 0.00283424 0.000181081 -0.016076 -0.00161366 0.000105793 -0.0126283 -0.0246142 0.00538482 0.00155859 0.0060227 0.00154649 0.00789713 -0.00247747 -0.021898 -0.0163721
internal_weight=466.132 428.131 274.774 26.6605 153.357 137.313 109.542 105.316 89.0759 83.024 73.8851 17.9154 10.0937 248.114 25.408 19.7521 55.9697 222.706 105.746 87.2846 68.6805 116.96 18.6041 38.0007
internal_count=2475 2298 1456 135 842 750 597 574 488 455 409 96 55 1321 131 100 313 1190 573 472 377 617 95 177
is_linear=0
shrinkage=0.03


Tree=19
num_leaves=25
num_cat=0
split_feature=0 0 3 9 9 9 2 9 9 9 9 9 9 9 9 0 0 9 9 0 9 9 9 9
split_gain=40.7958 16.1101 7.85976 13.9839 7.74048 12.1985 6.00138 5.13159 3.88684 5.10614 4.20924 10.9098 3.64621 5.77964 3.57288 3.41988 5.46099 6.36574 6.58459 4.85733 8.1002 7.64788 13.4325 4.72276
threshold=0.52462959109535223 -1.6701444152346754 1.0000000180025095e-35 0.054930892634578864 -1.5437458630555974 -2.1660237334486436 1.0000000180025095e-35 1.3636389911931512 -0.66614160872808481 -0.4659862524779505 0.27818109768280613 0.38595705874057079 0.80936262003893245 1.0069518819781678 -1.6669183899787574 -0.047920149686394221 0.42920463429839445 -0.26968003769416454 -0.99203558621227794 -0.71589484726509822 -1.1447181977107781 0.18195256102408755 0.36542830425337752 1.0685381454397478
decision_type=2 2 2 2 2 2 2 2 2 2 2 2 2 2 2 2 2 2 2 2 2 2 2 2
left_child=1 6 7 -4 5 -3 -1 8 -2 -10 -11 -12 -13 -14 -7 19 17 18 -17 20 -6 -21 -23 -18
right_child=2 4 3 -5 15 14 -8 -9 9 10 11 12 13 -15 -16 16 23 -19 -20 21 -22 22 -24 -25
leaf_value=-0.042133999446172105 0.029131317590376248 0.014283185701493716 -0.034499123060796326 0.019950664277905129 -0.035536443152363109 -0.023248440645343836 -0.0053705665983202642 0.034830962374296628 -0.014636561707959048 0.02636901953279485 -0.026285904078527527 0.02945461771887305 -0.017567809338985885 0.021301270951740496 -0.051474618626470549 0.01681686891229988 -0.0026972459300908251 0.013571482270865321 -0.013195941792822602 -0.0023756897054711197 0.0032584816556854128 -0.057544505461461247 -0.011313344302742537 -0.039136641373981602
leaf_weight=14.091300845146181 15.955970525741575 6.7916791886091259 7.2665529102087048 10.208823829889296 5.1422172039747229 11.759660094976429 5.5783785283565512 15.779429167509077 5.6661052256822577 19.588979452848434 6.4233772009611121 12.093838453292848 5.3824827522039405 9.5549252182245237 6.1451385170221302 9.3534833937883395 10.298742681741713 41.679290264844894 22.179074987769127 83.941553741693497 83.473769143223763 6.4393567889928809 46.511034801602364 4.6447823196649543
leaf_count=61 97 35 41 64 24 53 27 106 34 127 36 80 33 63 26 52 53 230 116 418 429 27 222 21
internal_value=-0.0004404 -0.00531402 0.015728 -0.00269046 -0.00377969 -0.0199504 -0.0317078 0.0192867 0.0160017 0.0124334 0.015325 0.00885823 0.0172095 0.00729535 -0.032936 -0.00250648 0.00250368 0.00587709 -0.00429326 -0.00446504 0.00100729 -0.00800751 -0.0169356 -0.0140234
internal_weight=465.95 358.029 107.92 17.4754 338.36 24.6965 19.6697 90.4451 74.6657 58.7097 53.0436 33.4546 27.0312 14.9374 17.9048 313.663 88.1554 73.2118 31.5326 225.508 88.616 136.892 52.9504 14.9435
internal_count=2475 1794 681 105 1706 114 88 576 470 373 339 212 176 96 79 1592 472 398 168 1120 453 667 249 74
is_linear=0
shrinkage=0.03


Tree=20
num_leaves=25
num_cat=0
split_feature=0 0 0 0 0 0 5 7 0 0 0 5 0 8 5 0 0 2 8 4 3 0 0 7
split_gain=36.361 15.4334 4.83953 8.5967 4.44843 3.73313 3.45225 3.467 2.74317 7.01901 4.618 5.23718 2.98771 2.95812 2.3506 1.93532 3.21017 1.68121 1.67141 1.53967 2.9398 6.25168 7.15648 2.92416
threshold=0.23835472070447897 -1.9564192856255487 1.1926042886740562 1.0971793318770986 0.52462959109535223 0.42920463429839445 1.0000000180025095e-35 1.0000000180025095e-35 -1.6701444152346754 -1.8609943288285906 -1.1930196312498866 1.0000000180025095e-35 -1.2884445880468445 1.0000000180025095e-35 1.0000000180025095e-35 1.0000000180025095e-35 0.14292976390752124 1.0000000180025095e-35 1.0000000180025095e-35 1.0000000180025095e-35 1.0000000180025095e-35 -0.42961997687422504 -0.71589484726509822 1.0000000180025095e-35
decision_type=2 2 2 2 2 2 2 2 2 2 2 2 2 2 2 2 2 2 2 2 2 2 2 2
left_child=1 -1 3 4 5 17 7 -6 9 -3 11 12 18 15 -4 19 -17 -2 -10 20 23 22 -22 -12
right_child=2 8 14 -5 6 -7 -8 -9 10 -11 13 -13 -14 -15 -16 16 -18 -19 -20 -21 21 -23 -24 -25
leaf_value=-0.044250441221333557 0.0054926003985135185 0.0015008723619098934 0.021811357451479545 -0.022105301177355811 0.022386093679311291 -0.007976213988361425 -0.00838649564890207 -0.0040374547274548249 0.010827195408037277 -0.045917860075792578 -0.0058758710319971692 -0.02521702291134556 -0.0070757624221634121 -0.012431514897257117 0.0010277337773173998 0.016592070118360055 -0.0045973825306850217 0.020385526150817897 0.029706090490075263 0.0034597993725519953 -0.0036356062247745085 -0.00036596768814253089 -0.05272684824648731 0.0085906360253506127
leaf_weight=9.1387202590703946 22.967500537633896 6.4686828106641769 44.942315101623535 7.7782614380121222 40.140354692935944 15.461571604013441 4.4023669660091391 5.0289332270622245 19.802495598793033 4.966407045722006 128.18453823029995 4.3123300969600669 7.190984532237052 46.029578164219856 5.4965330660343161 10.339937418699266 17.037544712424278 9.7043002247810346 5.3637683838605872 16.937120497226715 4.5836904495954514 11.133192151784895 6.410134971141817 13.943081647157667
leaf_count=37 127 32 294 45 259 76 25 32 104 23 633 20 36 224 31 56 94 55 28 84 23 55 29 68
internal_value=7.44719e-05 -0.00583994 0.0119032 0.00824846 0.0106649 0.0041687 0.0169726 0.0194442 -0.00468032 -0.0190937 -0.00411445 0.00583907 0.00997799 -0.00554805 0.0195465 -0.00402892 0.00340546 0.00991615 0.0148509 -0.00515223 -0.00604026 -0.0162121 -0.0322591 -0.00445667
internal_weight=467.764 311.842 155.922 105.483 97.705 48.1334 49.5717 45.1693 302.703 11.4351 291.268 36.6696 32.3572 254.599 50.4388 208.569 27.3775 32.6718 25.1663 181.192 164.255 22.127 10.9938 142.128
internal_count=2490 1546 944 619 574 258 316 291 1509 55 1454 188 168 1266 325 1042 150 182 132 892 808 107 52 701
is_linear=0
shrinkage=0.03


Tree=21
num_leaves=25
num_cat=0
split_feature=0 0 0 5 2 7 6 0 0 0 0 0 5 7 8 6 0 0 4 5 8 3 0 2
split_gain=34.4604 15.5936 4.60736 3.70542 3.22183 3.49239 2.73869 5.79643 19.2867 2.31693 6.45954 5.03929 4.91386 4.60383 3.73358 3.05554 2.83514 2.67443 1.88485 2.89675 1.61578 1.587 5.72442 2.16737
threshold=0.52462959109535223 -1.9564192856255487 1.0000000180025095e-35 1.0000000180025095e-35 1.0000000180025095e-35 1.0000000180025095e-35 1.0000000180025095e-35 1.0971793318770986 1.2880292454710141 -1.6701444152346754 -1.8609943288285906 -1.1930196312498866 1.0000000180025095e-35 1.0000000180025095e-35 1.0000000180025095e-35 1.0000000180025095e-35 -1.2884445880468445 -0.52504493367118277 1.0000000180025095e-35 1.0000000180025095e-35 1.0000000180025095e-35 1.0000000180025095e-35 -0.42961997687422504 1.0000000180025095e-35
decision_type=2 2 2 2 2 2 2 2 2 2 2 2 2 2 2 2 2 2 2 2 2 2 2 2
left_child=1 -1 9 6 5 -4 -2 -8 -9 10 -3 12 16 14 18 -16 20 -15 19 21 -11 23 -23 -13
right_child=3 2 4 -5 -6 -7 7 8 -10 11 -12 13 -14 17 15 -17 -18 -19 -20 -21 -22 22 -24 -25
leaf_value=-0.043155058352928669 0.018860293909291202 0.0014567390738536765 0.0018673104408695885 -0.0022401439852825613 0.012412644710137012 -0.021038933334679169 0.030527272919946828 -0.060888958903323631 0.030351296719482144 0.010556749604281473 -0.043838978559813668 -0.0023777266565555111 -0.024240925110450361 -0.0051403303858702475 -0.019450219655094754 0.0075233383721429519 -0.0068432343285432361 0.016415490729294054 0.0040979203713095783 -0.025962924722632286 0.029232918854539131 -0.029773049800850403 0.0020327239078960536 -0.011728961499831193
leaf_weight=9.0902863442897779 83.44712270796299 6.4647841155529022 50.171197280287743 10.106106340885161 23.109699741005898 6.8026639670133582 4.7837490141391745 3.8001005053520185 4.6201742589473724 19.702050447463993 5.0446233451366407 92.751305192708969 4.3507909625768653 9.1875568181276339 32.73901504278183 4.2729809433221808 7.2119430154561988 11.876419737935064 15.690196096897123 6.7993897795677176 5.288219913840293 10.059685319662096 10.314963072538374 29.370520129799843
leaf_count=37 546 32 270 57 127 36 32 20 31 104 23 461 20 44 155 21 36 60 78 32 28 47 51 142
internal_value=7.39234e-05 -0.0043618 -0.00335772 0.0150442 0.00296461 -0.000867689 0.0168515 0.00415623 -0.0108258 -0.00522519 -0.0183966 -0.00464126 0.00568379 -0.00633322 -0.00772498 -0.0163362 0.00972687 0.0070134 -0.0057932 -0.00683271 0.0145088 -0.00591989 -0.0136709 -0.00462672
internal_weight=467.056 360.298 351.208 106.757 80.0836 56.9739 96.6511 13.204 8.42027 271.124 11.5094 259.615 36.553 223.062 201.998 37.012 32.2022 21.064 164.986 149.296 24.9903 142.496 20.3746 122.122
internal_count=2490 1804 1767 686 433 306 629 83 51 1334 55 1279 188 1091 987 176 168 104 811 733 132 701 98 603
is_linear=0
shrinkage=0.03


Tree=22
num_leaves=25
num_cat=0
split_feature=0 0 9 9 7 9 9 9 5 9 0 9 9 9 0 2 9 9 0 9 0 0 9 0
split_gain=33.4885 15.2543 8.85271 10.3569 9.88328 9.26738 7.58837 10.0192 6.36088 5.36678 4.88582 6.0538 6.75561 5.41748 5.82667 5.11758 5.72314 7.78499 5.3615 5.07916 6.51178 4.72418 6.62314 6.47505
threshold=1.0000000180025095e-35 -1.9564192856255487 0.37569268149697438 0.27818109768280613 1.0000000180025095e-35 -0.17601759534634517 -1.5437458630555974 -1.6669183899787574 1.0000000180025095e-35 0.18195256102408755 -0.71589484726509822 -0.92275103981800077 -0.73799224943326103 -0.24530214174062284 -0.047920149686394221 1.0000000180025095e-35 0.10625277885256236 0.61177335809969724 -1.6701444152346754 -0.42236264919266475 -0.33419502007726731 0.52462959109535223 1.0685381454397478 0.42920463429839445
decision_type=2 2 2 2 2 2 2 2 2 2 2 2 2 2 2 2 2 2 2 2 2 2 2 2
left_child=1 -1 3 4 9 -6 7 -3 21 -2 15 -12 -13 19 -15 18 -17 -18 -8 20 -14 22 -4 -24
right_child=2 6 8 -5 5 -7 10 -9 -10 -11 11 12 13 14 -16 16 17 -19 -20 -21 -22 -23 23 -25
leaf_value=-0.045411910429733554 0.008295895371313337 -0.0098450846526161734 0.024882646734320193 -0.02544003639 -0.037435578840166107 0.020926637705780793 -0.028448183286986947 -0.056231610713108983 -0.010850538263016797 0.037430387854905565 0.0052105039868470407 -0.033520805466212611 0.0080720617026789638 -0.014954792074528798 0.0144559491726385 0.025019278731056735 -0.030146441044620748 0.020061079569944067 -0.00057767193585732618 0.015166121623846042 -0.026635125773819428 0.026368646777456629 0.01092235754213124 -0.034666967441053173
leaf_weight=9.0332849621772748 82.617479383945465 14.258858054876329 12.754063844680788 9.7702479213476163 7.8904512971639633 3.5505801439285261 6.8531931936740866 5.9350733757019034 6.4906601160764685 6.1113048046827307 26.851283743977547 10.497382864356039 10.315412029623984 74.98005698621273 6.5957915633916846 14.271235704421999 5.2698663324117643 5.8815965801477432 66.406970635056496 14.447618588805197 9.2082789838314074 42.101947590708733 7.467186510562895 4.4897534251213074
leaf_count=37 485 66 72 55 40 22 31 24 35 39 135 47 51 353 33 78 25 31 337 77 46 293 42 20
internal_value=-0.000549054 -0.00705932 0.00942739 0.00404309 0.00691878 -0.0193236 -0.00578454 -0.0234783 0.0175027 0.0103026 -0.00436428 -0.00772302 -0.0104782 -0.00838485 -0.0125768 0.000839631 0.0124369 -0.00366558 -0.00318485 0.00168134 -0.00829746 0.0202571 0.00984452 -0.00619614
internal_weight=464.05 280.806 183.244 109.94 100.17 11.441 271.773 20.1939 73.3036 88.7288 251.579 152.896 126.045 115.547 81.5758 98.6829 25.4227 11.1515 73.2602 33.9713 19.5237 66.813 24.711 11.9569
internal_count=2474 1371 1103 641 586 62 1334 90 462 524 1244 742 607 560 386 502 134 56 368 174 97 427 134 62
is_linear=0
shrinkage=0.03


Tree=23
num_leaves=25
num_cat=0
split_feature=0 0 9 9 7 9 9 9 5 9 0 9 0 0 9 9 9 0 9 0 0 0 9 9
split_gain=31.6111 14.5055 8.50672 9.67062 9.29979 8.59039 7.10368 9.37628 6.09228 5.23068 4.61094 6.32787 6.03635 4.57886 5.66975 6.26062 5.06118 5.4564 4.83949 5.26656 4.37938 6.08606 3.54229 9.89368
threshold=1.0000000180025095e-35 -1.9564192856255487 0.37569268149697438 0.27818109768280613 1.0000000180025095e-35 -0.17601759534634517 -1.5437458630555974 -1.6669183899787574 1.0000000180025095e-35 0.18195256102408755 0.52462959109535223 1.0685381454397478 0.42920463429839445 -0.71589484726509822 -0.92275103981800077 -0.73799224943326103 -0.24530214174062284 -0.047920149686394221 -0.47625062972154691 -0.33419502007726731 -1.6701444152346754 -1.8609943288285906 -0.99203558621227794 -0.90350533248625686
decision_type=2 2 2 2 2 2 2 2 2 2 2 2 2 2 2 2 2 2 2 2 2 2 2 2
left_child=1 -1 3 4 9 -6 7 -3 10 22 11 -4 -13 20 -15 -16 18 -18 19 -17 21 -8 -2 -24
right_child=2 6 8 -5 5 -7 13 -9 -10 -11 -12 12 -14 14 15 16 17 -19 -20 -21 -22 -23 23 -25
leaf_value=-0.044383390613927154 0.018114503435498728 -0.0095170187607249261 0.024469735981313329 -0.024339620491871702 -0.035740485634992283 0.020555572304075176 0.0053245676763233312 -0.054297810327548303 -0.010467194087015746 0.037159508849010599 0.026029988184497355 0.010658182785269636 -0.033261049132451877 0.0050658140082996206 -0.032194847533314343 0.0046804055687734818 -0.014424745826691784 0.014113706048449779 0.012592238765330133 -0.029659073856411169 0.0030804086775145833 -0.03890714008112945 -0.03828269454641333 0.0077486348511611285
leaf_weight=8.9663452059030515 22.875448763370514 14.307119548320772 12.582812607288362 9.9035197496414167 8.0147779285907728 3.5069016069173804 5.5856053084135056 5.9616194516420355 6.5259689539670935 5.9732653498649588 41.381179377436638 7.4233737736940366 4.538380891084671 26.79060061275959 10.60021351277828 9.3522699624300021 75.396695792675018 6.5537068098783484 17.533244013786316 7.049433469772338 87.37959885597229 5.6132522672414762 4.5512906908988944 54.813476607203484
leaf_count=37 133 66 72 55 40 22 28 24 35 39 293 42 20 135 47 46 353 33 94 34 449 25 24 328
internal_value=-0.000531416 -0.00683935 0.00920604 0.00393494 0.00674255 -0.0186054 -0.0056023 -0.0226883 0.0171826 0.0100533 0.0199197 0.00961787 -0.00600511 -0.00422725 -0.00747123 -0.0101267 -0.00810806 -0.0121425 0.00163476 -0.0100787 0.000816712 -0.0168459 0.0080845 0.00421957
internal_weight=463.18 281.09 182.09 109.639 99.7352 11.5217 272.123 20.2687 72.4517 88.2135 65.9257 24.5446 11.9618 251.855 153.276 126.486 115.885 81.9504 33.9349 16.4017 98.5785 11.1989 82.2402 59.3648
internal_count=2474 1371 1103 641 586 62 1334 90 462 524 427 134 62 1244 742 607 560 386 174 80 502 53 485 352
is_linear=0
shrinkage=0.03


Tree=24
num_leaves=25
num_cat=0
split_feature=0 0 9 7 9 0 9 9 0 9 0 0 2 9 9 9 9 9 0 3 9 9 9 0
split_gain=33.1284 10.842 8.01815 15.4499 7.73813 11.3662 7.42815 6.77974 6.50595 7.04622 9.5998 6.39653 5.82824 4.87855 6.05452 4.5984 16.1837 4.59809 5.62537 3.60036 5.23654 12.4917 4.37458 6.59915
threshold=1.0000000180025095e-35 -1.6701444152346754 -0.26968003769416454 1.0000000180025095e-35 -1.1703791408197699 -0.71589484726509822 -1.2627585360121396 -0.64304675992999238 1.2880292454710141 -0.40055084755002213 0.62005454789230996 -0.71589484726509822 1.0000000180025095e-35 -0.947128935771543 -0.90350533248625686 -0.947128935771543 -0.99973386914497575 -2.1660237334486436 0.33377967750143672 1.0000000180025095e-35 0.16783904231414226 0.36542830425337752 1.6356449881484625 -0.23877006328030961
decision_type=2 2 2 2 2 2 2 2 2 2 2 2 2 2 2 2 2 2 2 2 2 2 2 2
left_child=1 12 3 7 5 -3 -7 15 9 10 -9 -6 -1 -13 -15 16 17 -2 -19 20 -16 -22 23 -23
right_child=2 4 -4 -5 11 6 -8 8 -10 -11 -12 13 -14 14 19 -17 -18 18 -20 -21 21 22 -24 -25
leaf_value=-0.038044185321187411 -0.016687335774583707 -0.041735257375174681 0.014987150466197937 -0.041323525067153921 0.004284778991194821 3.5043234587972457e-05 -0.042178852270404341 -0.0063322356995090708 0.027885244705531224 0.0065884158548561644 -0.075389918825786661 0.015705928173061271 -0.0029919408599205373 -0.045015824320817528 0.0021381020019558428 0.027755343641014136 -0.049218437993378439 0.0031637598155657086 0.037764517092698513 -0.018602154817596004 -0.047441818441141918 0.0092576166393163427 -0.02824548197716685 -0.016548105634965223
leaf_weight=13.965332180261614 3.11992980539799 11.516037121415136 117.96708436310291 6.7203972935676566 83.568644255399704 24.348303779959679 4.434887200593951 3.8877808600664148 3.3324232250452033 5.452568084001542 3.3926018625497818 8.5213819444179517 6.1489657312631598 3.8046627938747397 53.558464467525482 13.646098762750624 3.993498086929324 7.418183475732806 9.8360574841499311 18.998364821076393 7.3627135008573523 21.944119438529011 6.3164377212524405 15.025272563099863
leaf_count=60 16 51 748 33 432 117 20 21 22 30 19 45 30 16 269 80 21 41 63 89 31 103 30 71
internal_value=0.000340001 -0.00611056 0.0104259 0.00157585 -0.00446527 -0.016547 -0.00646923 0.00690694 -0.00943253 -0.0191992 -0.0385126 -0.00224308 -0.0273287 -0.00626815 -0.00774244 0.0138123 0.00600411 0.0168282 0.0228885 -0.00659142 -0.00440169 -0.0113172 -0.0051726 -0.00123047
internal_weight=458.28 279.514 178.767 60.7995 259.399 40.2992 28.7832 54.0791 16.0654 12.733 7.28038 219.1 20.1143 135.531 127.01 38.0138 24.3677 20.3742 17.2542 123.205 104.207 50.6485 43.2858 36.9694
internal_count=2458 1364 1094 346 1274 188 137 313 92 70 40 1086 90 654 609 221 141 120 104 593 504 235 204 174
is_linear=0
shrinkage=0.03


Tree=25
num_leaves=25
num_cat=0
split_feature=0 0 0 0 0 0 5 7 0 0 5 0 2 8 6 0 8 2 3 3 0 0 0 2
split_gain=31.3104 10.3472 5.65903 9.37103 5.35793 3.77025 2.8239 3.36331 2.25014 7.23404 2.37209 5.4491 2.22307 2.63539 2.05218 4.20486 3.53334 2.30133 7.18861 4.5698 6.05375 1.69937 1.54673 2.28423
threshold=1.0000000180025095e-35 -1.9564192856255487 1.1926042886740562 1.0971793318770986 0.52462959109535223 0.42920463429839445 1.0000000180025095e-35 1.0000000180025095e-35 -1.6701444152346754 -1.8609943288285906 1.0000000180025095e-35 -1.2884445880468445 1.0000000180025095e-35 1.0000000180025095e-35 1.0000000180025095e-35 -1.1930196312498866 1.0000000180025095e-35 1.0000000180025095e-35 1.0000000180025095e-35 1.0000000180025095e-35 -0.42961997687422504 -0.047920149686394221 -0.14334510648335191 1.0000000180025095e-35
decision_type=2 2 2 2 2 2 2 2 2 2 2 2 2 2 2 2 2 2 2 2 2 2 2 2
left_child=1 -1 3 4 5 12 7 -6 9 -3 11 -10 -2 -14 15 -13 17 19 -19 21 -21 -17 23 -16
right_child=2 8 -4 -5 6 -7 -8 -9 10 -11 -12 14 13 -15 22 16 -18 18 -20 20 -22 -23 -24 -25
leaf_value=-0.038797025862927811 0.0036320698599969178 0.0044992350321853471 0.019243251376560005 -0.025001941054951887 0.022458768642320954 -0.009442223774347969 -0.0050729683155919247 -0.0033904911365781835 0.0099128192379708598 -0.042591146176298125 -0.014986238247730935 -0.032214948084853347 0.010443587416098018 0.038857749742881559 -0.0078350835741350464 0.0019969394830785404 -0.013960712389324741 -0.015445840021859055 0.026552456922945899 -0.033043722233266293 0.0051556136811662517 -0.014663849064353952 0.014402312026292581 0.0133659664341606
leaf_weight=8.3587773591279966 42.889538496732712 6.2190713584423065 45.997145965695381 7.7415904551744452 37.6866065710783 14.903367459774016 4.730817422270774 5.14911825954914 24.320424184203148 5.5616936534643155 17.520949572324753 5.4334176033735266 14.810696348547937 3.6646781116724005 15.575444146990781 92.771920800209045 35.309827879071236 29.706427961587906 4.1846493035554877 8.6970806419849378 6.5427865236997595 5.8577338904142371 7.2035286873579016 6.4751044809818259
leaf_count=35 240 31 313 44 257 73 27 34 130 24 81 26 85 21 74 461 168 141 22 39 33 30 35 34
internal_value=0.000332866 -0.00592134 0.0101854 0.00701887 0.00902066 0.00409259 0.0169223 0.0193515 -0.00490874 -0.0177321 -0.0043268 -0.0035553 0.00737972 0.0160797 -0.0050595 -0.00620679 -0.00543489 -0.0033975 -0.0102602 -0.00135496 -0.016644 0.00100744 0.0023333 -0.00160943
internal_weight=457.312 279.739 177.574 131.576 123.835 76.2683 47.5665 42.8357 271.38 11.7808 259.599 242.078 61.3649 18.4754 217.758 188.504 183.07 147.761 33.8911 113.87 15.2399 98.6297 29.2541 22.0505
internal_count=2458 1364 1094 781 737 419 318 291 1329 55 1274 1193 346 106 1063 920 894 726 163 563 72 491 143 108
is_linear=0
shrinkage=0.03


Tree=26
num_leaves=25
num_cat=0
split_feature=0 0 9 9 9 9 9 0 0 9 9 9 9 9 9 8 0 9 9 9 9 0 9 9
split_gain=27.6386 12.882 6.61082 5.62183 5.72263 5.91123 9.89466 5.99241 10.111 4.20553 12.2944 3.71901 8.51087 6.92508 5.75703 4.75044 4.44532 5.50345 5.13682 3.66554 4.85251 11.2304 5.6503 5.86202
threshold=0.52462959109535223 -1.9564192856255487 1.1224261259686299 0.95178085429383574 -1.456498656485026 -0.66614160872808481 -0.086204294464874667 1.2880292454710141 1.001754375080141 0.27818109768280613 0.37569268149697438 -1.1998892253951101 -0.99203558621227794 -2.1660237334486436 -0.88554267230996297 1.0000000180025095e-35 -0.62046989046814038 -1.5437458630555974 -1.2627585360121396 -0.79444632427304274 -0.67640598597168167 1.0000000180025095e-35 -0.52244032731773171 -0.47625062972154691
decision_type=2 2 2 2 2 2 2 2 2 2 2 2 2 2 2 2 2 2 2 2 2 2 2 2
left_child=1 -1 3 4 -2 -6 7 8 -7 -8 -11 13 -13 -3 -14 16 -15 -18 -19 -16 21 -21 -22 -24
right_child=2 11 -4 -5 5 6 9 -9 -10 10 -12 12 14 15 19 -17 17 18 -20 20 22 -23 23 -25
leaf_value=-0.039045319731088116 -0.014647464306706779 0.018039429111653189 0.028747857822596663 -0.020437423524995481 0.033829684747966389 -0.00028478674606911164 0.029078739465806386 0.013105134931009867 -0.068584795929247377 -0.023853628195923897 0.021860777766379791 0.020147100255533856 -0.021789074137952759 -0.0246842013651573 0.017992999334553006 -0.035338989293233938 -0.020183984008248959 0.025343631767438871 -0.014241792345993494 -0.030720599114613088 0.014487276601241814 0.021399724356116503 -0.034759418822661696 -0.0020869126561154738
leaf_weight=9.2321586310863477 6.6847240179777137 6.4847951084375373 20.815692126750946 5.1819649636745444 11.727871328592299 4.7156756967306119 16.762803331017494 5.0706842988729468 3.3269759118556976 7.1439061164855984 20.45523838698864 15.004105091094969 14.009717568755148 12.181554228067393 7.9604738652706137 8.4739802032709104 8.8222882002592051 7.9672987312078432 4.6852524727583047 14.279253154993059 18.354192107915878 5.0318118631839743 5.0588061213493338 214.50180171430111
leaf_count=39 32 33 153 34 82 29 118 34 19 40 143 81 67 54 42 40 39 42 23 63 96 28 25 1093
internal_value=-9.33252e-05 -0.00407567 0.013667 0.00979476 0.0118591 0.0144196 0.0104589 -0.0124355 -0.0285382 0.0172265 0.0100278 -0.00313392 -0.00186373 -0.0108206 -0.0030466 -0.0152628 -0.0102081 -0.00199652 0.0106851 -0.00205644 -0.00267692 -0.0171398 -0.001503 -0.00283971
internal_weight=453.933 352.047 101.886 81.0698 75.8879 69.2032 57.4753 13.1133 8.04265 44.3619 27.5991 342.815 294.2 48.6152 279.196 42.1304 33.6564 21.4748 12.6526 265.186 257.226 19.3111 237.915 219.561
internal_count=2449 1765 684 531 497 465 383 82 48 301 183 1726 1495 231 1414 198 158 104 65 1347 1305 91 1214 1118
is_linear=0
shrinkage=0.03


Tree=27
num_leaves=25
num_cat=0
split_feature=9 9 9 5 9 9 2 9 9 2 7 9 9 9 8 9 9 9 9 9 9 9 6 7
split_gain=7.29693 4.37465 12.9436 6.34786 7.48411 6.29067 4.82992 5.33789 4.68407 4.67572 4.6578 4.74711 4.1182 4.39865 3.70331 6.05253 3.90242 3.518 7.74068 4.99767 4.065 2.93631 5.20517 4.7207
threshold=-1.4244224775987864 0.38595705874057079 0.27818109768280613 1.0000000180025095e-35 1.0685381454397478 0.2987098521699994 1.0000000180025095e-35 -0.96380854879238742 0.3474656440770833 1.0000000180025095e-35 1.0000000180025095e-35 -1.1998892253951101 -0.99203558621227794 -0.86116477635642086 1.0000000180025095e-35 -0.39670170608367322 -0.6173858168210008 -0.34537981986568972 -0.19013111405629049 -0.42236264919266475 0.1537255236041965 0.80936262003893245 1.0000000180025095e-35 1.0000000180025095e-35
decision_type=2 2 2 2 2 2 2 2 2 2 2 2 2 2 2 2 2 2 2 2 2 2 2 2
left_child=-1 2 6 21 -5 -4 10 -8 9 -7 11 -2 -13 -14 17 16 -16 19 -19 -15 -20 -3 23 -23
right_child=1 3 5 4 -6 8 7 -9 -10 -11 -12 12 13 14 15 -17 -18 18 20 -21 -22 22 -24 -25
leaf_value=-0.012189825578021573 -0.01795442405450353 0.013049382490771252 -0.056221120943315973 -0.027824451154602307 0.02031406915594533 0.011021779171948033 0.025920506644091981 0.0037172766227520993 -0.035441774010489667 -0.027565707873612719 -0.017010017214167693 0.018403785648520653 -0.017425746472026639 0.0055879941488371967 -0.0070121981441562068 0.0029240402439257534 -0.046738356158246327 -0.021007222446476275 0.011499809108941272 0.031603055989832568 -0.009509797044745397 0.0035207027525655087 -0.018764238118247283 0.025970131055431171
leaf_weight=40.804971113801003 12.472353532910345 48.969806000590324 4.1582698971033123 10.074472859501837 4.0853963047265998 7.224092826247217 11.974888652563093 52.330993622541428 6.7057348787784568 4.6423001736402512 16.349099785089493 11.693251386284826 12.08294256031513 37.163577437400818 4.1058932691812515 14.23482073843479 4.8593345135450381 13.256127908825865 28.640647336840644 8.0933449268340976 11.663692623376845 69.585674718022346 8.2757861167192441 9.5923116803169233
leaf_count=191 65 281 20 51 20 36 66 284 33 23 84 69 59 200 20 76 24 69 166 46 62 398 47 59
internal_value=-8.83309e-05 0.00110953 -0.00123495 0.00518327 -0.0139356 -0.0228677 0.000823136 0.00785191 -0.0153999 -0.00407419 -0.00176537 -0.000190572 0.00132909 -0.000159785 0.00155 -0.00923642 -0.0285446 0.0040824 -0.00112082 0.0102403 0.00541983 0.00716768 0.00387422 0.00624042
internal_weight=453.04 412.235 261.651 150.583 14.1599 22.7304 238.921 64.3059 18.5721 11.8664 174.615 158.266 145.794 134.1 122.017 23.2 8.96523 98.8174 53.5605 45.2569 40.3043 136.424 87.4538 79.178
internal_count=2449 2258 1402 856 71 112 1290 350 92 59 940 856 791 722 663 120 44 543 297 246 228 785 504 457
is_linear=0
shrinkage=0.03


Tree=28
num_leaves=25
num_cat=0
split_feature=0 0 9 9 9 9 9 0 0 9 9 9 9 5 9 0 0 0 9 9 0 9 9 9
split_gain=21.4551 9.80738 7.04262 9.49129 5.69849 6.42421 9.65767 7.53224 7.07729 4.87176 6.77686 3.37247 10.824 4.53288 3.19683 3.90825 3.16724 3.78062 2.87371 5.63941 3.32457 6.30468 2.88551 12.4541
threshold=0.52462959109535223 -1.9564192856255487 1.1224261259686299 0.95178085429383574 -1.456498656485026 -0.66614160872808481 -0.086204294464874667 1.2880292454710141 1.001754375080141 -1.5437458630555974 -2.1660237334486436 0.27818109768280613 0.37569268149697438 1.0000000180025095e-35 -1.6669183899787574 -0.23877006328030961 -1.6701444152346754 -1.8609943288285906 1.5971535734849749 1.4932267538935589 -0.33419502007726731 1.8499138631085421 1.0390280608644071 1.1224261259686299
decision_type=2 2 2 2 2 2 2 2 2 2 2 2 2 2 2 2 2 2 2 2 2 2 2 2
left_child=1 -1 3 4 -2 -6 7 8 -7 10 -3 -8 -13 -14 15 -12 17 -11 19 22 -20 -22 -18 -24
right_child=2 9 -4 -5 5 6 11 -9 -10 16 14 12 13 -15 -16 -17 18 -19 20 -21 21 -23 23 -25
leaf_value=-0.036355054570685483 -0.01552007782495065 0.012167577936903049 0.027649703065524715 -0.030529969213250338 0.03363211876204486 -0.0023528023462454999 0.028124050440556353 0.015441735310050875 -0.056147048058456314 4.4143548116977079e-05 0.0041897175658250456 -0.022357547786772479 0.028343461885948506 -0.0080974900651087818 -0.041229305949601371 -0.029664868835563268 0.00038665011667631894 -0.033750763464437408 -0.027247844329430837 0.034645800631353328 -0.02539285067488958 0.026522565344757314 -0.05253945103744298 0.00084308875112966137
leaf_weight=7.7291382253170005 6.5420935451984397 6.2413180321455028 22.046661615371704 5.2395526319742194 12.089199781417845 4.449613079428671 15.156657055020331 5.6401247680187216 4.3557539731264114 6.1225178688764572 5.3864788413047826 6.7778552323579815 16.315873906016353 3.7847414016723624 6.3515801876783344 7.1329613924026489 273.44827426970005 5.8029405474662763 7.6951011270284679 4.1719491034746161 4.2994587719440442 4.1253229528665543 5.0063412189483669 18.350724741816521
leaf_count=33 31 32 165 33 87 27 109 38 24 30 23 37 122 21 26 32 1397 25 37 21 20 22 24 93
internal_value=0.000506185 -0.00292448 0.0126298 0.00850864 0.0112318 0.0137842 0.0095359 -0.0116257 -0.0289632 -0.00219484 -0.0149313 0.0168081 0.0104271 0.021482 -0.0238939 -0.015099 -0.00122274 -0.0164005 -0.000651933 9.00465e-06 -0.0129924 2.83251e-05 -0.000477856 -0.0105989
internal_weight=464.262 361.864 102.398 80.3515 75.1119 68.5698 56.4806 14.4455 8.80537 354.135 25.1123 42.0351 26.8785 20.1006 18.871 12.5194 329.023 11.9255 317.097 300.977 16.1199 8.42478 296.805 23.3571
internal_count=2509 1815 694 529 496 465 378 89 51 1782 113 289 180 143 81 55 1669 55 1614 1535 79 42 1514 117
is_linear=0
shrinkage=0.03


Tree=29
num_leaves=25
num_cat=0
split_feature=9 2 9 6 9 2 9 9 9 9 9 9 2 7 9 9 9 2 9 9 9 9 7 9
split_gain=9.68272 5.22817 4.37904 7.22225 6.5317 4.75186 3.96432 9.7308 5.2342 19.3361 7.35807 6.51423 13.4948 8.58013 5.07072 4.70559 4.58128 5.37772 3.75173 2.86627 11.4884 4.37522 6.65 3.89529
threshold=-1.4757443638167695 1.0000000180025095e-35 -0.99203558621227794 1.0000000180025095e-35 -0.88554267230996297 1.0000000180025095e-35 1.1224261259686299 1.0390280608644071 0.99797055189002093 0.95178085429383574 0.86068450625691539 0.80936262003893245 1.0000000180025095e-35 1.0000000180025095e-35 0.7118510362247642 -0.7610870982313539 0.09085621298716727 1.0000000180025095e-35 0.91970467540759626 1.5971535734849749 1.651041554013857 1.7973089297351097 1.0000000180025095e-35 1.4932267538935589
decision_type=2 2 2 2 2 2 2 2 2 2 2 2 2 2 2 2 2 2 2 2 2 2 2 2
left_child=1 -1 3 5 -4 -2 7 8 9 10 11 13 -13 14 15 -6 17 -15 -12 23 -21 -22 -23 -8
right_child=2 -3 4 -5 6 -7 19 -9 -10 -11 18 12 -14 16 -16 -17 -18 -19 -20 20 21 22 -24 -25
leaf_value=-0.0079858426789257784 0.0079907830632808003 -0.034544703926478723 -0.018240055641818444 -0.023895911106865349 0.023278341085805308 0.030618283514330498 0.0092584159798868981 -0.0346947037341905 0.032547196760446234 -0.065855705541108714 0.040567241539183181 0.0038301133830544488 -0.065479311831372011 -0.032130444295412099 0.024047718018224994 0.0013888159175505733 0.0057210607949170185 0.0037245689538867371 0.003469000772754248 -0.039237137177151014 0.034882798896614838 -0.0080079344264975157 0.037624207999330805 0.034585738276772839
leaf_weight=29.581478074193001 26.548386588692665 8.612987667322157 15.608815088868139 4.8018313646316519 9.2035689800977689 12.187253728508948 28.198227144777775 7.034329265356063 4.6604741364717475 3.8995017111301413 6.35120841860771 6.672771289944647 4.0706189721822739 14.031826853752142 10.026032537221907 222.88930003345013 7.084293767809867 5.1452880650758734 3.9976351261138916 5.1234396025538471 5.1549312621355083 11.889221653342245 3.7906243130564681 6.7790415287017813
leaf_count=135 151 39 75 26 52 68 166 37 27 20 35 37 20 68 56 1213 42 26 21 27 30 71 25 42
internal_value=0.00049405 -0.013975 0.00179392 0.010808 0.000765517 0.01511 0.00157604 0.000180636 0.00100378 0.000502688 0.00139661 0.000475632 -0.0224309 0.00139259 0.00315919 0.00225684 -0.0148947 -0.0225104 0.0262366 0.008562 0.00100933 0.0109063 0.0030237 0.0141672
internal_weight=463.343 38.1945 425.149 43.5375 381.611 38.7356 366.002 305.067 298.033 293.372 289.473 279.124 10.7434 268.38 242.119 232.093 26.2614 19.1771 10.3488 60.9355 25.9582 20.8348 15.6798 34.9773
internal_count=2509 174 2335 245 2090 219 2015 1654 1617 1590 1570 1514 57 1457 1321 1265 136 94 56 361 153 126 96 208
is_linear=0
shrinkage=0.03


Tree=30
num_leaves=25
num_cat=0
split_feature=0 0 9 9 9 9 9 0 9 0 0 9 9 9 7 0 9 9 9 9 8 0 9 0
split_gain=28.3993 10.4799 4.63773 7.67773 4.64117 11.8389 5.34476 5.45345 4.3189 5.97396 7.34335 7.71978 16.9048 6.67044 3.37207 5.82114 3.35655 8.78678 5.55871 10.3976 3.26965 5.28698 3.98673 8.03828
threshold=0.23835472070447897 -1.9564192856255487 -1.5091035898584588 -2.0159072162610427 0.1537255236041965 0.36542830425337752 -0.01820279522604679 -0.42961997687422504 -2.1660237334486436 1.1926042886740562 1.0971793318770986 -0.99973386914497575 -0.947128935771543 0.22429311715392394 1.0000000180025095e-35 -0.52504493367118277 -0.6173858168210008 -0.30175621658040402 0.95178085429383574 1.1224261259686299 1.0000000180025095e-35 -0.047920149686394221 0.84785403470241993 -0.23877006328030961
decision_type=2 2 2 2 2 2 2 2 2 2 2 2 2 2 2 2 2 2 2 2 2 2 2 2
left_child=1 -1 3 -3 6 -6 14 -8 -2 10 11 -10 -13 -12 -4 -16 -14 -18 -19 -20 21 22 23 -7
right_child=8 2 4 -5 5 20 7 -9 9 -11 13 12 16 -15 15 -17 17 18 19 -21 -22 -23 -24 -25
leaf_value=-0.037310160572915432 -0.027831002015896521 0.0095519877093749768 -0.00033814480967185568 -0.026250568039747103 -0.026735762012246804 -0.0033452115020681642 0.032339664549663728 -0.0033913646525663421 0.032965028616321126 0.020179330518211313 -0.049357413129179684 -0.057267032276110859 0.029665331901009499 0.0093161860577181173 -0.031263570172143047 0.0047962505714186721 -0.018679826466574026 0.018693253236506453 -0.036431439489026538 0.011212696498253407 -0.016598768726886117 0.020357242895770688 0.003136874009888034 -0.040567925708998739
leaf_weight=9.0356376469135267 2.5949087589979163 7.4386887550354031 133.34572599828243 19.5804083943367 24.045078814029694 23.416988104581836 8.6991572529077512 6.8885460495948783 10.93978790938854 45.693133316934109 3.810463845729827 3.6180763989686957 6.5300463289022437 3.2153762131929398 8.8335436433553713 7.407830834388732 10.118840202689162 37.152002587914474 5.4134586006402996 17.286231473088264 13.535194650292395 9.4854486435651761 36.08100026845932 6.7197815328836432
leaf_count=39 13 37 680 83 109 114 49 37 68 323 19 18 39 21 40 38 54 244 30 110 65 53 178 31
internal_value=-0.000388542 -0.00546884 -0.00452701 -0.0163937 -0.00337557 -0.00805231 -0.000168078 0.0165493 0.0105276 0.0112199 0.00704607 0.00932619 0.00609843 -0.0225054 -0.00191011 -0.0148164 0.00909529 0.00717557 0.0115468 -0.000149554 -0.0030181 -0.000589978 -0.00359059 -0.011645
internal_weight=460.885 314.513 305.477 27.0191 278.458 113.283 165.175 15.5877 146.372 143.777 98.0843 91.0584 80.1187 7.02584 149.587 16.2414 76.5006 69.9705 59.8517 22.6997 89.2384 75.7032 66.2178 30.1368
internal_count=2492 1553 1514 120 1394 550 844 86 939 926 603 563 495 40 758 78 477 438 384 140 441 376 323 145
is_linear=0
shrinkage=0.03


Tree=31
num_leaves=25
num_cat=0
split_feature=0 0 9 9 9 9 9 0 9 9 0 9 9 9 9 5 9 9 0 0 9 0 9 9
split_gain=26.8555 10.0017 4.35064 7.17949 4.35103 11.0154 5.07099 5.26025 4.02344 8.10449 8.03939 4.34642 4.08111 6.60092 15.7235 3.43747 3.08056 3.33475 4.62243 6.7135 4.21939 3.33289 8.89197 5.64426
threshold=0.23835472070447897 -1.9564192856255487 -1.5091035898584588 -2.0159072162610427 0.1537255236041965 0.36542830425337752 -0.01820279522604679 -0.42961997687422504 -0.27866136778231165 -0.64304675992999238 1.2880292454710141 -0.39670170608367322 -1.456498656485026 -0.99973386914497575 -0.947128935771543 1.0000000180025095e-35 -0.060543351355883165 -0.67640598597168167 -1.2884445880468445 -1.0975946744529288 -0.7610870982313539 -0.14334510648335191 -1.2204179798823034 -0.82908859747018127
decision_type=2 2 2 2 2 2 2 2 2 2 2 2 2 2 2 2 2 2 2 2 2 2 2 2
left_child=1 -1 3 -3 6 -6 16 -8 9 12 11 -11 -2 -14 -15 -10 17 18 -4 -20 21 -21 -23 -24
right_child=8 2 4 -5 5 -7 7 -9 15 10 -12 -13 13 14 -16 -17 -18 -19 19 20 -22 22 23 -25
leaf_value=-0.03657430557210347 -0.0060298398477567046 0.0093049337134015683 0.013024634336930662 -0.025347881551396542 -0.025730688732126628 -0.0029241211814014221 0.031927582553488661 -0.0032840080580218796 0.015399312935556334 -0.039604376175374371 0.026965027208019857 -0.001930933036004 0.03631518519906634 -0.043713931984708083 0.027364671731048052 -0.0049855512446105041 -0.024247291829727909 0.0034269135164651686 -0.045962648595257477 -0.007489375874865139 -0.022085264457851434 0.040302067585339198 -0.028656412571018267 0.021009943771952953
leaf_weight=8.9423224329948408 8.465211093425749 7.4075845927000072 10.158787280321119 19.667997911572456 24.231853917241096 89.303862288594246 8.5493667572736722 6.9001472145318976 90.570181898772717 7.7477838993072501 3.2516880780458441 4.2779737859964362 10.199256196618082 4.1825919747352591 8.4796443581581133 8.111828684806822 5.3307615816593161 73.910008192062378 4.0893623679876319 30.375057607889168 11.810353949666021 5.4158919602632514 5.1489808410406104 3.4319072365760865
leaf_count=39 41 37 53 83 109 441 49 37 618 40 23 23 73 21 54 46 26 384 18 148 53 29 27 20
internal_value=-0.000375527 -0.00530113 -0.00438642 -0.0158672 -0.00327089 -0.00779171 -0.000162407 0.0162012 0.0102928 0.00302815 -0.0148863 -0.0262026 0.0117647 0.0183537 0.00388598 0.0137236 -0.00185151 -0.00102439 -0.00569561 -0.00885092 -0.00614964 -0.0019081 0.0102041 -0.00879246
internal_weight=459.96 314.674 305.732 27.0756 278.656 113.536 165.121 15.4495 145.286 46.6041 15.2774 12.0258 31.3267 22.8615 12.6622 98.682 149.671 144.34 70.4303 60.2716 56.1822 44.3718 13.9968 8.58089
internal_count=2492 1553 1514 120 1394 550 844 86 939 275 86 63 189 148 75 664 758 732 348 295 277 224 76 47
is_linear=0
shrinkage=0.03


Tree=32
num_leaves=25
num_cat=0
split_feature=0 0 9 9 9 9 9 3 0 9 0 0 9 5 9 9 9 9 9 9 8 0 0 0
split_gain=22.6931 8.69941 5.04904 5.75906 5.58329 8.16101 6.27869 5.61018 5.56307 4.62556 4.45735 5.585 4.16405 4.13292 3.67215 6.62421 3.07783 9.31866 7.10909 6.18272 3.73764 9.02227 6.00197 4.29671
threshold=0.14292976390752124 -1.9564192856255487 1.1955598138292565 0.95178085429383574 0.37569268149697438 0.27818109768280613 0.18195256102408755 1.0000000180025095e-35 0.62005454789230996 1.1224261259686299 0.52462959109535223 0.33377967750143672 -0.55579955335942099 1.0000000180025095e-35 -1.5437458630555974 -1.6669183899787574 -0.24530214174062284 -0.17601759534634517 -0.42236264919266475 -0.3710407629746813 1.0000000180025095e-35 -0.90674476085901368 -0.047920149686394221 -1.4792945016407597
decision_type=2 2 2 2 2 2 2 2 2 2 2 2 2 2 2 2 2 2 2 2 2 2 2 2
left_child=1 -1 3 4 5 6 7 10 -9 -5 11 -2 -13 -6 15 -3 18 -18 -16 -20 22 -22 23 -19
right_child=2 14 -4 9 13 -7 -8 8 -10 -11 -12 12 -14 -15 16 -17 17 20 19 -21 21 -23 -24 -25
leaf_value=-0.035078520187142213 0.010040802184296852 -0.0060369953038805534 0.021728675122696536 -0.025599291199562783 0.025898859605295019 -0.022949315557646531 0.036570390135439182 0.012686952353758838 -0.029529273956034004 0.011810091531934816 0.017357032575452992 0.003892545689697179 -0.032004893504153066 -0.0078654222418806652 -0.0027548495757304431 -0.043239795099537216 -0.042248322701270505 -0.02489390070303623 0.035528710463241624 0.0037961968455499581 0.015137812994793264 -0.025440196613358893 0.019832035018670705 -0.0021831273724663915
leaf_weight=8.1734315901994687 25.731375604867935 17.69556096196175 25.2082284912467 8.180244714021681 23.233619086444381 8.1722662597894651 6.5830928832292548 4.61278487741947 7.1853602379560471 4.6746280938386908 33.044231578707695 5.5303805321455002 6.1338285803794843 3.7958104014396659 95.518239438533783 5.6934088468551627 5.9883337318897238 8.1200954020023328 8.8081888407468814 14.829961180686949 6.7425716072320965 18.359505504369736 10.522266760468481 97.779036402702332
leaf_count=36 146 80 179 47 168 45 46 27 41 32 226 28 32 21 473 23 26 39 50 79 34 85 58 476
internal_value=0.000355266 -0.00455535 0.00939058 0.00711832 0.00909945 0.00573926 0.00837885 0.00612213 -0.0130238 -0.0119955 0.00932893 0.00223498 -0.0149848 0.0211573 -0.00369525 -0.015093 -0.00269557 -0.00559227 0.000890449 0.0156206 -0.00404123 -0.0145407 -0.0017774 -0.00392454
internal_weight=460.316 298.231 162.086 136.878 124.023 96.9933 88.8211 82.238 11.7981 12.8549 70.4398 37.3956 11.6642 27.0294 290.057 23.389 266.668 147.512 119.156 23.6382 141.523 25.1021 116.421 105.899
internal_count=2497 1459 1038 859 780 591 546 500 68 79 432 206 60 189 1423 103 1320 718 602 129 692 119 573 515
is_linear=0
shrinkage=0.03


Tree=33
num_leaves=25
num_cat=0
split_feature=9 9 6 9 9 5 9 7 5 9 9 9 3 9 9 9 9 9 9 9 6 9 9 9
split_gain=5.83959 3.35709 6.75984 5.27209 2.99028 7.86345 6.59556 8.89565 4.87259 3.29583 8.26886 7.77732 4.27741 12.4077 7.03553 5.31388 4.82032 4.41215 9.51516 7.38416 4.13986 3.83445 3.30397 3.08184
threshold=-1.4757443638167695 -0.99203558621227794 1.0000000180025095e-35 -0.90350533248625686 0.38595705874057079 1.0000000180025095e-35 0.32693688958989003 1.0000000180025095e-35 1.0000000180025095e-35 0.16783904231414226 0.2987098521699994 0.27818109768280613 1.0000000180025095e-35 -0.70719911770247135 -0.30175621658040402 -0.75852100392045485 -0.15805493517005098 -0.31073754666855113 -0.42236264919266475 -0.58659268509021067 1.0000000180025095e-35 -0.26968003769416454 -0.6173858168210008 0.80936262003893245
decision_type=2 2 2 2 2 2 2 2 2 2 2 2 2 2 2 2 2 2 2 2 2 2 2 2
left_child=-1 2 -2 -3 6 23 7 8 9 12 11 -11 15 -14 -15 -5 17 18 19 20 22 -19 -17 -6
right_child=1 3 -4 4 5 -7 -8 -9 -10 10 -12 -13 13 14 -16 16 -18 21 -20 -21 -22 -23 -24 -25
leaf_value=-0.010555575399507472 0.01346412870733024 -0.018158466366118252 -0.024526314871305646 0.027025454058300574 0.012729707255999947 -0.016307014378545613 -0.024685795739284394 -0.018793327736099392 0.025187834618021588 -0.0090453668234687836 0.018100853154126507 -0.0555541123688977 -0.052258835784872483 0.021744480771607431 -0.014210876465991772 -0.0056291382560078353 0.011957768800397658 -0.03534940382616867 0.023272512738783207 -0.017907331899627125 0.0338486381844504 -0.0047668501009076845 0.025300995887605836 0.0032943655927701828
leaf_weight=40.330918669700623 38.542030602693558 13.172187015414236 4.7329562678933135 9.2525400146841985 48.48981898277998 14.878952682018278 10.186443626880644 20.271050572395325 7.9096172600984564 15.11118227243424 7.5185290873050681 4.1177503913640967 4.7218744605779674 8.8549307435750997 10.960489436984059 14.38495816290378 38.753997251391411 5.4180858284235027 15.159297347068785 19.611112579703331 4.2706554383039466 11.566953569650655 3.9649776667356518 87.153335697948933
leaf_count=183 220 63 26 52 286 73 49 101 45 83 36 19 21 49 57 76 228 29 86 103 23 59 21 509
internal_value=0.000347216 0.00139666 0.00930914 0.000485327 0.00116268 0.00439633 -0.00113287 5.57538e-05 0.00216004 0.00111125 -0.00857473 -0.0190049 0.00287463 -0.00855726 0.00185652 0.00516669 0.00337893 -0.00109112 0.00288392 -0.00443467 0.00724556 -0.0145224 0.00105412 0.00666732
internal_weight=459.335 419.004 43.275 375.729 362.557 150.522 212.034 201.848 181.577 173.667 26.7475 19.2289 146.92 24.5373 19.8154 122.383 113.13 74.376 57.391 42.2317 22.6206 16.985 18.3499 135.643
internal_count=2497 2314 246 2068 2005 868 1137 1088 987 942 138 102 804 127 106 677 625 397 309 223 120 88 97 795
is_linear=0
shrinkage=0.03


Tree=34
num_leaves=25
num_cat=0
split_feature=0 0 9 9 2 9 9 9 0 0 0 8 9 2 0 0 7 9 0 9 9 9 9 9
split_gain=21.0594 9.09863 5.40319 7.45507 4.69343 3.54491 5.07928 5.31335 5.19915 7.10776 3.53131 3.32579 3.50292 5.24097 10.8662 3.11463 3.62627 6.41067 7.94455 6.26125 6.16835 17.1587 6.38814 6.48509
threshold=0.52462959109535223 -1.6701444152346754 1.1224261259686299 0.95178085429383574 1.0000000180025095e-35 -1.456498656485026 -0.66614160872808481 -0.086204294464874667 1.2880292454710141 1.001754375080141 -1.1930196312498866 1.0000000180025095e-35 0.68875618742667177 1.0000000180025095e-35 -1.3838695448438021 -0.047920149686394221 1.0000000180025095e-35 -1.1703791408197699 -0.81131980406205584 -1.3038160449865261 0.18195256102408755 0.28844547492640255 0.32693688958989003 0.40905190753866322
decision_type=2 2 2 2 2 2 2 2 2 2 2 2 2 2 2 2 2 2 2 2 2 2 2 2
left_child=1 4 3 5 -1 -2 -7 8 9 -8 11 12 13 14 -3 16 17 18 -12 -20 -19 -22 -23 -24
right_child=2 10 -4 -5 -6 6 7 -9 -10 -11 15 -13 -14 -15 -16 -17 -18 20 19 -21 21 22 23 -25
leaf_value=-0.031601107880013163 -0.0085915162489348263 0.0087304124981245311 0.027320345365583282 -0.023408188249003828 0.0013112419419159828 0.032867944547559584 0.0053477660201308938 0.016117840084269971 0.01633012690622972 -0.049547122008405831 -0.046731144729168304 0.024709506002352364 0.023903356405037018 0.017747807840157399 -0.040770994328851638 0.0018670511854618457 0.0067476171102727476 0.0013575271904018929 -0.00027286399255476573 -0.039581977751980378 -0.061025924079443364 0.028825896143865389 -0.040113949696727436 -0.0056753287159734935
leaf_weight=14.379832893610002 6.7839140444993964 9.4721195250749641 18.8502337038517 5.7652539163827887 5.3505276292562476 10.915007434785364 4.5750679075717908 39.710364632308483 5.9941076412796965 3.9604417234659195 7.1703539490699795 7.5901679247617713 5.5725926160812369 7.8050475865602484 6.8971022814512279 90.340367048978806 21.979724928736687 90.171685010194778 14.940961524844173 4.8244034051895115 5.5623397231101981 4.3823905885219565 5.3851959109306327 57.109822526574135
leaf_count=63 32 47 151 35 27 84 28 286 42 21 31 41 30 43 33 495 107 457 70 21 23 19 23 273
